svm_type c_svc
kernel_type rbf
gamma 0.00308642
nr_class 2
total_sv 611
rho 0.516159
label 1 0
nr_sv 305 306
SV
1 1:-0.59408 2:-0.716647 3:-0.538813 4:-0.607889 5:-0.752381 6:-0.616848 7:-0.453674 8:-0.594289 9:-0.5647 10:-0.60376 11:-0.583422 12:-0.385309 13:-0.46589 14:-0.693023 15:-0.159236 16:-0.331465 17:-0.409028 18:-0.455474 19:-0.343409 20:-0.410435 21:-0.385386 22:-0.306503 23:-0.547401 24:-0.00266312 25:-0.17618 26:-0.210526 27:-0.257811 28:-0.410333 29:-0.326084 30:0.0136911 31:0.0825359 32:-0.442244 33:-0.273412 34:-0.0134643 35:-0.0345454 36:0.00202429 37:-0.266448 38:-0.156517 39:0.132501 40:0.512127 41:-0.429636 42:0.417598 43:0.241927 44:-0.104112 45:0.175828 46:-0.167407 47:-0.0501196 48:0.0202411 49:-0.221227 50:-0.435947 51:0.101639 52:0.0303384 53:-0.126297 54:-0.101431 55:-0.306636 56:-0.233686 57:-0.209086 58:0.0108507 59:-0.55922 60:-0.0950197 61:-0.290805 62:-0.352787 63:-0.479203 64:-0.400745 65:-0.42153 66:-0.420101 67:-0.281837 68:-0.609091 69:-0.363991 70:-0.420474 71:-0.542354 72:-0.656581 73:-0.576385 74:-0.532009 75:-0.567052 76:-0.580981 77:-0.735849 78:-0.555556 79:-0.629893 80:-0.585666 81:-0.701493 82:-0.734431 83:-0.695552 84:-0.539326 85:-0.599888 86:-0.807428 87:-0.572366 88:-0.600496 89:-0.665252 90:-0.737938 91:-0.59304 92:-0.627081 93:-0.491382 94:-0.471794 95:-0.774473 96:-0.469761 97:-0.566376 98:-0.631277 99:-0.507416 100:-0.538175 101:-0.447925 102:-0.442021 103:-0.173388 104:-0.66394 105:-0.322644 106:-0.362624 107:-0.401813 108:-0.398017 109:-0.411695 110:-0.29477 111:-0.141909 112:-0.120358 113:-0.600701 114:-0.114558 115:-0.0970205 116:-0.162278 117:-0.236417 118:-0.216348 119:-0.0343178 120:0.162585 121:0.308479 122:0.624953 123:0.251042 124:0.147616 125:-0.0767924 126:0.315441 127:-0.312144 128:-0.198129 129:-0.0913864 130:-0.108712 131:-0.592561 132:-0.126331 133:-0.0920646 134:-0.202325 135:-0.263165 136:-0.432176 137:-0.412811 138:-0.358683 139:-0.274793 140:-0.642353 141:-0.1843 142:-0.401006 143:-0.408585 144:-0.47999 145:-0.620126 146:-0.612917 147:-0.509306 148:-0.41727 149:-0.715395 150:-0.399144 151:-0.50433 152:-0.614057 153:-0.545134 154:-0.632893 155:-0.681741 156:-0.589091 157:-0.6845 158:-0.754875 159:-0.466198 160:-0.723314 161:-0.653965 162:-0.619881 163:-0.793178 164:-0.90188 165:-0.787698 166:-0.870113 167:-0.939271 168:-0.779888 169:-0.815267 170:-0.900707 171:-0.870583 172:-0.760173 173:-0.784358 174:-0.689027 175:-0.7235 176:-0.875 177:-0.749199 178:-0.747631 179:-0.77975 180:-0.765704 181:-0.564625 182:-0.655628 183:-0.649034 184:-0.597471 185:-0.813077 186:-0.560348 187:-0.587798 188:-0.616765 189:-0.626294 190:-0.533664 191:-0.477147 192:-0.360645 193:-0.376688 194:-0.698108 195:-0.424786 196:-0.372038 197:-0.350741 198:-0.356797 199:-0.238057 200:-0.000776616 201:0.0356939 202:0.231717 203:0.733363 204:0.193433 205:-0.0272368 206:-0.0936981 207:0.194777 208:-0.369979 209:-0.397797 210:-0.381984 211:-0.383712 212:-0.710801 213:-0.361344 214:-0.364548 215:-0.331281 216:-0.438429 217:-0.632665 218:-0.615752 219:-0.628825 220:-0.539306 221:-0.826471 222:-0.570595 223:-0.577982 224:-0.627235 225:-0.629131 226:-0.753795 227:-0.777451 228:-0.76365 229:-0.825444 230:-0.906838 231:-0.798813 232:-0.752119 233:-0.821311 234:-0.7309 235:-0.843863 236:-0.891236 237:-0.898998 238:-0.847926 239:-0.887468 240:-0.881919 241:-0.837838 242:-0.838288 243:-0.78766 244:-0.918457 245:-0.878834 246:-0.795663 247:-0.666752 248:-0.837154 249:-0.550419 250:-0.630558 251:-0.644284 252:-0.584933 253:-0.954988 254:-0.85731 255:-0.765357 256:-0.587472 257:-0.758473 258:-0.413488 259:-0.475287 260:-0.527375 261:-0.63507 262:-0.856206 263:-0.852489 264:-0.645232 265:-0.457228 266:-0.659354 267:-0.180465 268:-0.251486 269:-0.423311 270:-0.61574 271:-0.779522 272:-0.67279 273:-0.500918 274:-0.263396 275:-0.618204 276:-0.0272678 277:-0.250201 278:-0.505131 279:-0.67221 280:-0.762812 281:-0.610677 282:-0.353884 283:-0.155381 284:-0.309706 285:-0.153518 286:-0.361952 287:-0.654118 288:-0.724019 289:-0.667205 290:-0.488172 291:-0.233347 292:-0.0751385 293:-0.625057 294:-0.284957 295:-0.489397 296:-0.729765 297:-0.857781 298:-0.606495 299:-0.478327 300:-0.23549 301:-0.237421 302:-0.677608 303:-0.437576 304:-0.723574 305:-0.773915 306:-0.769208 307:-0.645572 308:-0.47979 309:-0.417523 310:-0.465489 311:-0.784711 312:-0.61637 313:-0.813073 314:-0.856775 315:-0.780457 316:-0.606671 317:-0.583796 318:-0.628931 319:-0.568748 320:-0.846621 321:-0.748664 322:-0.821465 323:-0.891948 324:-0.97928 
1 1:-0.56871 2:-0.619835 3:-0.600457 4:-0.763341 5:-0.695238 6:-0.61413 7:-0.557508 8:-0.53837 9:-0.560368 10:-0.645698 11:-0.659936 12:-0.588918 13:-0.497504 14:-0.665116 15:-0.341826 16:-0.386125 17:-0.473276 18:-0.48667 19:-0.634761 20:-0.454304 21:-0.524008 22:-0.503062 23:-0.626911 24:-0.221926 25:-0.374607 26:-0.440297 27:-0.454302 28:-0.591721 29:-0.456808 30:-0.334191 31:-0.11866 32:-0.528713 33:-0.422817 34:-0.249757 35:-0.247717 36:-0.266397 37:-0.711037 38:-0.515053 39:-0.16811 40:0.416654 41:-0.18247 42:0.587778 43:0.138443 44:-0.303056 45:-0.181216 46:-0.383685 47:-0.243308 48:-0.259987 49:-0.318678 50:-0.495321 51:-0.0997658 52:-0.156943 53:-0.308802 54:-0.160327 55:-0.463181 56:-0.456538 57:-0.375956 58:-0.268229 59:-0.616192 60:-0.332241 61:-0.495821 62:-0.449836 63:-0.47487 64:-0.57548 65:-0.591501 66:-0.443239 67:-0.404315 68:-0.645455 69:-0.504287 70:-0.657606 71:-0.456546 72:-0.583964 73:-0.663387 74:-0.611479 75:-0.579306 76:-0.640416 77:-0.716981 78:-0.435626 79:-0.489917 80:-0.585666 81:-0.692964 82:-0.717251 83:-0.748006 84:-0.772392 85:-0.689732 86:-0.782669 87:-0.705728 88:-0.667252 89:-0.688269 90:-0.711693 91:-0.71955 92:-0.725067 93:-0.607706 94:-0.564498 95:-0.767038 96:-0.682423 97:-0.693314 98:-0.678932 99:-0.651757 100:-0.624264 101:-0.611036 102:-0.576289 103:-0.489732 104:-0.713447 105:-0.603146 106:-0.558974 107:-0.536888 108:-0.633877 109:-0.588024 110:-0.557647 111:-0.421011 112:-0.412792 113:-0.678117 114:-0.302539 115:-0.44005 116:-0.41746 117:-0.552481 118:-0.510294 119:-0.319978 120:-0.0259073 121:0.159092 122:0.686955 123:0.255711 124:0.0657332 125:-0.142536 126:0.0678673 127:-0.453712 128:-0.446967 129:-0.444806 130:-0.321494 131:-0.648905 132:-0.402864 133:-0.346518 134:-0.381763 135:-0.398026 136:-0.618444 137:-0.589951 138:-0.547757 139:-0.502597 140:-0.71893 141:-0.557523 142:-0.568012 143:-0.559774 144:-0.595375 145:-0.689194 146:-0.725913 147:-0.673379 148:-0.659683 149:-0.751617 150:-0.61839 151:-0.635949 152:-0.675477 153:-0.675676 154:-0.773013 155:-0.773038 156:-0.725654 157:-0.661239 158:-0.81337 159:-0.654083 160:-0.795315 161:-0.80886 162:-0.662394 163:-0.806172 164:-0.818449 165:-0.853779 166:-0.741488 167:-0.854251 168:-0.772067 169:-0.694664 170:-0.779884 171:-0.707278 172:-0.805795 173:-0.814224 174:-0.848122 175:-0.709225 176:-0.817982 177:-0.785661 178:-0.665637 179:-0.741363 180:-0.698289 181:-0.645297 182:-0.737999 183:-0.708648 184:-0.687091 185:-0.785002 186:-0.619079 187:-0.616625 188:-0.594736 189:-0.603598 190:-0.699698 191:-0.627211 192:-0.598576 193:-0.566432 194:-0.73556 195:-0.540859 196:-0.5444 197:-0.550528 198:-0.581787 199:-0.485821 200:-0.321587 201:-0.222774 202:0.00607808 203:0.741885 204:0.108272 205:-0.202591 206:-0.26318 207:-0.0400548 208:-0.57057 209:-0.540643 210:-0.529764 211:-0.529177 212:-0.724452 213:-0.564793 214:-0.568846 215:-0.636253 216:-0.623572 217:-0.620699 218:-0.629124 219:-0.631304 220:-0.572856 221:-0.759559 222:-0.657093 223:-0.718281 224:-0.72696 225:-0.726284 226:-0.762707 227:-0.727772 228:-0.665349 229:-0.70858 230:-0.857284 231:-0.76208 232:-0.736521 233:-0.865027 234:-0.880472 235:-0.806859 236:-0.814073 237:-0.811082 238:-0.857143 239:-0.846547 240:-0.783518 241:-0.907336 242:-0.944709 243:-0.848805 244:-0.93168 245:-0.807441 246:-0.771071 247:-0.731036 248:-0.884585 249:-0.716916 250:-0.711561 251:-0.760371 252:-0.739653 253:-0.872263 254:-0.74386 255:-0.783796 256:-0.796814 257:-0.821582 258:-0.726306 259:-0.678384 260:-0.610218 261:-0.738066 262:-0.837997 263:-0.743838 264:-0.698731 265:-0.621616 266:-0.719035 267:-0.589545 268:-0.495076 269:-0.565617 270:-0.684309 271:-0.757827 272:-0.683456 273:-0.617152 274:-0.495632 275:-0.700192 276:-0.287708 277:-0.45027 278:-0.565856 279:-0.722315 280:-0.707179 281:-0.640587 282:-0.480959 283:-0.209443 284:-0.39714 285:-0.17745 286:-0.441935 287:-0.642803 288:-0.651762 289:-0.678545 290:-0.578254 291:-0.408097 292:-0.307568 293:-0.700357 294:-0.520983 295:-0.548036 296:-0.696401 297:-0.748079 298:-0.667519 299:-0.58082 300:-0.497995 301:-0.566158 302:-0.73608 303:-0.594657 304:-0.703537 305:-0.76183 306:-0.805142 307:-0.715008 308:-0.679563 309:-0.703378 310:-0.769335 311:-0.800312 312:-0.738864 313:-0.766281 314:-0.819536 315:-0.733503 316:-0.74742 317:-0.75565 318:-0.797286 319:-0.769626 320:-0.872437 321:-0.76698 322:-0.877283 323:-0.848144 324:-0.804798 
1 1:-0.0443975 2:0.0979929 3:0.0479452 4:-0.167053 5:-0.142857 6:0.111413 7:0.49361 8:0.393218 9:0.30915 10:0.09906 11:0.130712 12:0.284794 13:0.359401 14:0.153488 15:0.694268 16:0.761037 17:0.542509 18:0.384005 19:0.196474 20:0.245597 21:0.451357 22:0.589385 23:0.33945 24:0.915668 25:0.866517 26:0.774403 27:0.544862 28:0.0494549 29:0.353631 30:0.752826 31:0.991388 32:0.442904 33:0.479748 34:0.958515 35:0.754495 36:0.458502 37:-0.514279 38:-0.447785 39:-0.0418803 40:0.449746 41:-0.906018 42:0.438276 43:0.176855 44:-0.357506 45:-0.539261 46:0.519803 47:0.811482 48:0.973243 49:0.462352 50:0.435947 51:0.932553 52:0.745235 53:0.326324 54:0.234356 55:0.538971 56:0.773209 57:0.927535 58:0.942274 59:0.307346 60:0.705767 61:0.543335 62:0.293115 63:0.204506 64:0.353194 65:0.612465 66:0.762834 67:0.640919 68:0.0181818 69:0.318784 70:0.263158 71:0.0869087 72:0.114977 73:0.1797 74:0.280353 75:0.223962 76:0.164933 77:-0.113208 78:0.213404 79:0.131673 80:-0.0548712 81:0.00639659 82:0.195419 83:-0.100446 84:-0.00609952 85:-0.104353 86:-0.251719 87:0.287713 88:0.112328 89:-0.0465367 90:-0.0927727 91:0.134698 92:0.0271127 93:0.227026 94:0.245129 95:-0.14746 96:0.195018 97:0.19719 98:0.17409 99:0.172588 100:0.152098 101:0.248836 102:0.311648 103:0.621532 104:0.0547514 105:0.498351 106:0.517547 107:0.457634 108:0.386155 109:0.282707 110:0.504811 111:0.840224 112:0.85025 113:0.152228 114:0.843401 115:0.91864 116:0.702715 117:0.457258 118:-0.0919058 119:0.13479 120:0.6112 121:0.815375 122:-0.116769 123:0.789041 124:0.669022 125:0.172893 126:0.0848898 127:0.440707 128:0.734505 129:0.942601 130:0.767278 131:0.198657 132:0.724859 133:0.681959 134:0.45729 135:0.285941 136:0.516106 137:0.436739 138:0.437993 139:0.517662 140:0.017754 141:0.771374 142:0.274222 143:0.374442 144:0.117541 145:0.114687 146:0.124628 147:0.145207 148:0.344821 149:-0.0362225 150:0.352754 151:0.0611612 152:0.012987 153:0.0575793 154:0.0280102 155:0.0648464 156:0.102676 157:-0.0551914 158:-0.236769 159:0.15657 160:0.0180789 161:-0.0783767 162:-0.147859 163:-0.325393 164:-0.111633 165:-0.357469 166:-0.324086 167:-0.631579 168:-0.531844 169:-0.525724 170:-0.392995 171:-0.444247 172:-0.305487 173:-0.362693 174:0.0086928 175:-0.169971 176:-0.405702 177:-0.127864 178:-0.0358467 179:-0.0393474 180:-0.16487 181:-0.0148189 182:0.0538472 183:-0.0344249 184:0.261884 185:-0.174732 186:0.464952 187:0.325003 188:0.319904 189:0.156388 190:0.0949442 191:0.37239 192:0.552136 193:0.65922 194:0.0733219 195:0.619916 196:0.686474 197:0.432514 198:0.375131 199:0.0255364 200:0.308553 201:0.584238 202:0.819595 203:0.000526355 204:0.807023 205:0.501772 206:0.177653 207:0.11836 208:0.360086 209:0.606681 210:0.633154 211:0.588812 212:0.0474626 213:0.532739 214:0.473255 215:0.273001 216:0.0597316 217:0.18066 218:0.261414 219:0.281529 220:0.228059 221:-0.182353 222:0.182789 223:0.0270754 224:-0.000137552 225:-0.0130205 226:-0.0434257 227:-0.131626 228:-0.0419917 229:-0.115878 230:-0.48662 231:-0.191297 232:-0.0579858 233:-0.230055 234:-0.172024 235:-0.292419 236:-0.105273 237:-0.40871 238:-0.40553 239:-0.570332 240:-0.239852 241:-0.155212 242:-0.420333 243:-0.0294608 244:-0.530579 245:-0.528406 246:-0.00916611 247:-0.101569 248:-0.381818 249:-0.0994068 250:0.0785385 251:0.205069 252:0.150542 253:-0.212895 254:-0.0994152 255:-0.070877 256:0.0793736 257:-0.261395 258:0.152693 259:0.477893 260:0.474193 261:0.34376 262:-0.214888 263:-0.0248429 264:0.0447918 265:0.298892 266:-0.0655403 267:0.64054 268:0.894246 269:0.617323 270:0.275328 271:-0.04242 272:0.0987448 273:0.465739 274:0.716439 275:-0.028369 276:0.984546 277:0.730496 278:0.458757 279:0.0567659 280:0.0102724 281:0.382305 282:0.670005 283:0.702388 284:0.48237 285:0.685532 286:0.585877 287:0.307514 288:0.0400312 289:0.111964 290:0.406235 291:0.861607 292:0.897017 293:-0.0320129 294:0.690538 295:0.358926 296:0.179424 297:-0.113275 298:0.384471 299:0.618971 300:0.827535 301:0.609317 302:-0.0854485 303:0.257755 304:0.0186056 305:-0.22655 306:0.0280456 307:0.362392 308:0.448425 309:0.554449 310:0.161644 311:-0.268331 312:0.15451 313:-0.114568 314:-0.0930965 315:-0.318528 316:0.0673146 317:0.176007 318:0.0649505 319:-0.0872771 320:-0.495824 321:-0.0796235 322:-0.239893 323:-0.286608 324:-0.36096 
1 1:-0.87315 2:-0.815821 3:-0.842466 4:-0.886311 5:-0.904762 6:-0.807065 7:-0.803514 8:-0.871505 9:-0.833243 10:-0.858279 11:-0.766206 12:-0.811856 13:-0.770383 14:-0.869767 15:-0.85138 16:-0.800981 17:-0.793963 18:-0.835508 19:-0.826196 20:-0.724826 21:-0.789562 22:-0.716535 23:-0.853211 24:-0.59565 25:-0.671011 26:-0.702991 27:-0.730994 28:-0.742771 29:-0.66123 30:-0.565193 31:-0.444258 32:-0.731353 33:-0.583938 34:-0.508127 35:-0.583981 36:-0.597976 37:-0.614867 38:-0.584417 39:0.00509423 40:0.719934 41:0.0061973 42:0.425577 43:-0.213652 44:-0.516337 45:-0.118168 46:-0.583515 47:-0.467707 48:-0.484371 49:-0.552148 50:-0.738625 51:-0.594848 52:-0.602878 53:-0.52743 54:-0.592229 55:-0.732583 56:-0.698104 57:-0.691967 58:-0.610677 59:-0.847076 60:-0.662516 61:-0.713154 62:-0.713443 63:-0.707106 64:-0.859066 65:-0.842493 66:-0.796819 67:-0.799582 68:-0.909091 69:-0.787997 70:-0.823019 71:-0.716172 72:-0.74584 73:-0.82289 74:-0.857616 75:-0.859769 76:-0.845468 77:-0.90566 78:-0.78836 79:-0.798339 80:-0.776036 81:-0.842217 82:-0.697208 83:-0.821549 84:-0.677047 85:-0.691406 86:-0.859697 87:-0.732838 88:-0.721815 89:-0.773574 90:-0.747992 91:-0.713204 92:-0.683843 93:-0.652871 94:-0.647778 95:-0.836431 96:-0.577885 97:-0.703246 98:-0.738968 99:-0.70189 100:-0.631357 101:-0.647595 102:-0.611739 103:-0.434586 104:-0.770506 105:-0.418484 106:-0.538186 107:-0.593031 108:-0.675328 109:-0.70354 110:-0.642632 111:-0.472395 112:-0.359995 113:-0.722183 114:-0.114899 115:-0.433243 116:-0.544336 117:-0.602879 118:-0.735185 119:-0.665263 120:-0.344911 121:0.0236914 122:0.748741 123:-0.140158 124:-0.558427 125:-0.657827 126:-0.255815 127:-0.594899 128:-0.523811 129:-0.388473 130:-0.170697 131:-0.739536 132:-0.413238 133:-0.53544 134:-0.553335 135:-0.660294 136:-0.67371 137:-0.578608 138:-0.511525 139:-0.493789 140:-0.768556 141:-0.499774 142:-0.60443 143:-0.693893 144:-0.61838 145:-0.773664 146:-0.700455 147:-0.683555 148:-0.609556 149:-0.821475 150:-0.556813 151:-0.594932 152:-0.741788 153:-0.742976 154:-0.817276 155:-0.810438 156:-0.694719 157:-0.737788 158:-0.844011 159:-0.556921 160:-0.828329 161:-0.692069 162:-0.832448 163:-0.892799 164:-0.851351 165:-0.856591 166:-0.967213 167:-0.94332 168:-0.98324 169:-0.979421 170:-0.912596 171:-0.880587 172:-0.941122 173:-0.863832 174:-0.943251 175:-0.948189 176:-0.927632 177:-0.932003 178:-0.882983 179:-0.857806 180:-0.923674 181:-0.859101 182:-0.805482 183:-0.895676 184:-0.847798 185:-0.940155 186:-0.797428 187:-0.842925 188:-0.787426 189:-0.799026 190:-0.791958 191:-0.764907 192:-0.726349 193:-0.731097 194:-0.877143 195:-0.656426 196:-0.692502 197:-0.7387 198:-0.695562 199:-0.571855 200:-0.513444 201:-0.296116 202:-0.00544183 203:0.884954 204:-0.134676 205:-0.513099 206:-0.562895 207:-0.211371 208:-0.649624 209:-0.654003 210:-0.712087 211:-0.677121 212:-0.874234 213:-0.775022 214:-0.773365 215:-0.777573 216:-0.799972 217:-0.82251 218:-0.812451 219:-0.847328 220:-0.752192 221:-0.905882 222:-0.815781 223:-0.847393 224:-0.844567 225:-0.90113 226:-0.930519 227:-0.890118 228:-0.877978 229:-0.907298 230:-0.904856 231:-0.884148 232:-0.908783 233:-0.843716 234:-0.870457 235:-0.875451 236:-0.889032 237:-0.906768 238:-0.920507 239:-0.943734 240:-0.889299 241:-0.905019 242:-0.897146 243:-0.965536 244:-0.938292 245:-0.863248 246:-0.711603 247:-0.704808 248:-0.84664 249:-0.678871 250:-0.765884 251:-0.809042 252:-0.842799 253:-0.849959 254:-0.826901 255:-0.819523 256:-0.626556 257:-0.836385 258:-0.606373 259:-0.721503 260:-0.857246 261:-0.908155 262:-0.861026 263:-0.828516 264:-0.712577 265:-0.558282 266:-0.742472 267:-0.508816 268:-0.665862 269:-0.811335 270:-0.901929 271:-0.848135 272:-0.813069 273:-0.735833 274:-0.562577 275:-0.68098 276:-0.500166 277:-0.801867 278:-0.859345 279:-0.913025 280:-0.929478 281:-0.84052 282:-0.739086 283:-0.682307 284:-0.542031 285:-0.690542 286:-0.753954 287:-0.901538 288:-0.931869 289:-0.919222 290:-0.861495 291:-0.785514 292:-0.511137 293:-0.661398 294:-0.549759 295:-0.744995 296:-0.807971 297:-0.867608 298:-0.867383 299:-0.834777 300:-0.705572 301:-0.486219 302:-0.719601 303:-0.577878 304:-0.817215 305:-0.803663 306:-0.870289 307:-0.878106 308:-0.808484 309:-0.720332 310:-0.602004 311:-0.807332 312:-0.676503 313:-0.854076 314:-0.817817 315:-0.89044 316:-0.853372 317:-0.829872 318:-0.732443 319:-0.731354 320:-0.878512 321:-0.682524 322:-0.757849 323:-0.945766 324:-0.966194 
1 1:-0.128964 2:-0.409681 3:-0.125571 4:-0.429234 5:-0.580952 6:-0.423913 7:-0.177316 8:-0.311124 9:-0.377369 10:-0.116414 11:-0.234857 12:-0.152062 13:-0.0648918 14:-0.581395 15:0.02477 16:-0.137351 17:-0.274439 18:-0.341463 19:-0.0663308 20:0.0255899 21:-0.0229645 22:0.018956 23:-0.519878 24:0.154905 25:-0.0979775 26:-0.135405 27:-0.0690058 28:-0.0883236 29:0.0438565 30:0.175595 31:0.400957 32:-0.382838 33:-0.14295 34:0.197598 35:0.201089 36:0.14413 37:-0.533058 38:-0.351779 39:0.157114 40:0.742954 41:-0.61099 42:0.65675 43:0.446794 44:-0.352105 45:-0.550115 46:0.117875 47:0.150701 48:0.214972 49:-0.128683 50:-0.402388 51:0.386183 52:0.263127 53:-0.0729209 54:-0.0441718 55:-0.00843952 56:-0.0832307 57:-0.115789 58:0.157552 59:-0.538231 60:0.0989515 61:-0.104267 62:-0.234098 63:-0.182842 64:-0.377829 65:-0.224363 66:-0.128706 67:0.0925539 68:-0.536364 69:-0.0818394 70:-0.255061 71:-0.293729 72:-0.302572 73:-0.256344 74:-0.296909 75:-0.324711 76:-0.20951 77:-0.603774 78:-0.121693 79:-0.361803 80:-0.332587 81:-0.390192 82:-0.359341 83:-0.606868 84:-0.387801 85:-0.445312 86:-0.716644 87:-0.35986 88:-0.53436 89:-0.539955 90:-0.513482 91:-0.392221 92:-0.390201 93:-0.233478 94:-0.294028 95:-0.71995 96:-0.295971 97:-0.540455 98:-0.517983 99:-0.500747 100:-0.18901 101:-0.119569 102:-0.316452 103:-0.0620674 104:-0.706734 105:-0.245197 106:-0.38153 107:-0.309243 108:-0.310146 109:-0.00820209 110:-0.0411182 111:0.102541 112:0.0523923 113:-0.60641 114:-0.0886209 115:0.0162699 116:0.0962737 117:-0.105092 118:-0.287813 119:-0.0544807 120:0.362882 121:0.677189 122:0.62618 123:0.618296 124:0.444768 125:-0.098607 126:-0.210793 127:-0.025297 128:-0.0253304 129:0.0530877 130:-0.077673 131:-0.601283 132:-0.024524 133:0.118597 134:-0.0451159 135:-0.103803 136:-0.249021 137:-0.333998 138:-0.387361 139:-0.307536 140:-0.677433 141:-0.0782766 142:-0.24256 143:-0.26907 144:-0.272945 145:-0.51611 146:-0.528704 147:-0.48531 148:-0.339338 149:-0.69599 150:-0.252244 151:-0.451463 152:-0.426738 153:-0.203504 154:-0.620167 155:-0.420648 156:-0.511143 157:-0.503066 158:-0.67688 159:-0.242025 160:-0.471467 161:-0.523854 162:-0.590497 163:-0.479155 164:-0.5047 165:-0.476977 166:-0.435057 167:-0.850202 168:-0.606704 169:-0.778416 170:-0.738111 171:-0.73697 172:-0.610049 173:-0.551 174:-0.492865 175:-0.517843 176:-0.824561 177:-0.642769 178:-0.699217 179:-0.721049 180:-0.707201 181:-0.496157 182:-0.373035 183:-0.537783 184:-0.418229 185:-0.809383 186:-0.438739 187:-0.69975 188:-0.617808 189:-0.645959 190:-0.0854249 191:-0.157246 192:-0.126312 193:-0.2521 194:-0.731511 195:-0.450061 196:-0.419659 197:-0.358849 198:-0.28492 199:-0.0211227 200:0.173354 201:0.310458 202:0.586055 203:0.752463 204:0.522546 205:0.295965 206:0.0219976 207:0.0515671 208:-0.271476 209:-0.37762 210:-0.472569 211:-0.484897 212:-0.747456 213:-0.233779 214:-0.208891 215:-0.205868 216:-0.247199 217:-0.652393 218:-0.657156 219:-0.662948 220:-0.486695 221:-0.811765 222:-0.37317 223:-0.604386 224:-0.386933 225:-0.463013 226:-0.70259 227:-0.760272 228:-0.709798 229:-0.569034 230:-0.835481 231:-0.594801 232:-0.573076 233:-0.571585 234:-0.479567 235:-0.790012 236:-0.590667 237:-0.730117 238:-0.673963 239:-0.856777 240:-0.485855 241:-0.690347 242:-0.486326 243:-0.78766 244:-0.721212 245:-0.686777 246:-0.659289 247:-0.452816 248:-0.745455 249:-0.28738 250:-0.439837 251:-0.372171 252:-0.38099 253:-0.812247 254:-0.646199 255:-0.597557 256:-0.416946 257:-0.650954 258:-0.225217 259:-0.276453 260:-0.374298 261:-0.466068 262:-0.671174 263:-0.58086 264:-0.549774 265:-0.268738 266:-0.615751 267:-0.0314763 268:-0.122848 269:-0.246299 270:-0.364565 271:-0.698915 272:-0.542746 273:-0.299958 274:-0.137236 275:-0.616457 276:0.161482 277:-0.0972681 278:-0.313929 279:-0.480125 280:-0.605379 281:-0.455916 282:-0.144375 283:0.131991 284:0.0385508 285:0.125137 286:-0.165042 287:-0.395925 288:-0.632471 289:-0.444847 290:-0.308053 291:-0.0623644 292:0.0772475 293:-0.622339 294:-0.0851579 295:-0.38973 296:-0.596739 297:-0.62605 298:-0.451291 299:-0.293933 300:-0.0874553 301:-0.0413024 302:-0.649701 303:-0.226294 304:-0.531384 305:-0.492795 306:-0.583406 307:-0.444227 308:-0.323833 309:-0.261911 310:-0.216911 311:-0.705928 312:-0.385022 313:-0.596237 314:-0.572042 315:-0.670897 316:-0.477082 317:-0.483575 318:-0.433865 319:-0.347335 320:-0.743356 321:-0.479013 322:-0.636364 323:-0.644556 324:-0.730643 
1 1:-0.682875 2:-0.669421 3:-0.821918 4:-0.832947 5:-0.828571 6:-0.527174 7:-0.482428 8:-0.709697 9:-0.693557 10:-0.742589 11:-0.568544 12:-0.545103 13:-0.482529 14:-0.683721 15:-0.501769 16:-0.446391 17:-0.544724 18:-0.499716 19:-0.603694 20:-0.5334 21:-0.471399 22:-0.322251 23:-0.672783 24:-0.0807812 25:-0.371011 26:-0.294227 27:-0.437928 28:-0.551588 29:-0.324151 30:-0.169163 31:-0.0921053 32:-0.593399 33:-0.429846 34:-0.162724 35:-0.21856 36:-0.22085 37:-0.501478 38:-0.446887 39:-0.326485 40:0.21874 41:-0.192842 42:0.523055 43:0.525921 44:-0.186056 45:-0.095766 46:-0.257208 47:-0.204921 48:-0.242736 49:-0.36284 50:-0.586318 51:-0.0510539 52:-0.169 53:-0.239251 54:-0.319018 55:-0.395995 56:-0.328737 57:-0.308366 58:-0.093316 59:-0.670165 60:-0.195282 61:-0.296084 62:-0.39541 63:-0.556326 64:-0.621312 65:-0.576204 66:-0.480839 67:-0.273486 68:-0.718182 69:-0.599376 70:-0.621747 71:-0.606161 72:-0.757943 73:-0.6116 74:-0.613687 75:-0.622873 76:-0.658247 77:-0.792453 78:-0.569665 79:-0.679715 80:-0.74916 81:-0.675906 82:-0.763064 83:-0.853184 84:-0.745425 85:-0.664062 86:-0.870702 87:-0.728902 88:-0.738555 89:-0.781486 90:-0.814846 91:-0.734698 92:-0.731727 93:-0.70412 94:-0.571629 95:-0.871128 96:-0.66544 97:-0.690326 98:-0.729354 99:-0.722203 100:-0.596128 101:-0.578743 102:-0.65472 103:-0.471426 104:-0.829243 105:-0.574406 106:-0.59825 107:-0.598655 108:-0.559256 109:-0.603056 110:-0.457845 111:-0.39345 112:-0.356259 113:-0.759239 114:-0.408396 115:-0.369253 116:-0.371811 117:-0.421091 118:-0.369086 119:-0.282542 120:-0.168572 121:0.0687674 122:0.7818 123:0.252227 124:0.269301 125:-0.157606 126:0.0609946 127:-0.432174 128:-0.413232 129:-0.397831 130:-0.405734 131:-0.754173 132:-0.397508 133:-0.334364 134:-0.281419 135:-0.44061 136:-0.570961 137:-0.558701 138:-0.610091 139:-0.566443 140:-0.819465 141:-0.38439 142:-0.581057 143:-0.657199 144:-0.645699 145:-0.797907 146:-0.771626 147:-0.74045 148:-0.64813 149:-0.883571 150:-0.610382 151:-0.701212 152:-0.665393 153:-0.742976 154:-0.867764 155:-0.777019 156:-0.799328 157:-0.743709 158:-0.89415 159:-0.418203 160:-0.751297 161:-0.769517 162:-0.818693 163:-0.939361 164:-0.891304 165:-0.921968 166:-0.843632 167:-0.959514 168:-0.901676 169:-0.910026 170:-0.894923 171:-0.92222 172:-0.874538 173:-0.922045 174:-0.834017 175:-0.904309 176:-0.947368 177:-0.82508 178:-0.874124 179:-0.871721 180:-0.926405 181:-0.796497 182:-0.805065 183:-0.792401 184:-0.78587 185:-0.926856 186:-0.726918 187:-0.784861 188:-0.729457 189:-0.781876 190:-0.645018 191:-0.628763 192:-0.610607 193:-0.64223 194:-0.851964 195:-0.631741 196:-0.60464 197:-0.590851 198:-0.551368 199:-0.357791 200:-0.24298 201:-0.233456 202:-0.0350574 203:0.870968 204:0.119009 205:-0.0207914 206:-0.192976 207:0.00925138 208:-0.523435 209:-0.569868 210:-0.61746 211:-0.638029 212:-0.856664 213:-0.634671 214:-0.56554 215:-0.577299 216:-0.587052 217:-0.758021 218:-0.76958 219:-0.823318 220:-0.661304 221:-0.918382 222:-0.679322 223:-0.776908 224:-0.819945 225:-0.762484 226:-0.838683 227:-0.790296 228:-0.877337 229:-0.865878 230:-0.966303 231:-0.915795 232:-0.834181 233:-0.865027 234:-0.844613 235:-0.877557 236:-0.836855 237:-0.916581 238:-0.847926 239:-0.923274 240:-0.897909 241:-0.771429 242:-0.922711 243:-0.945525 244:-0.979063 245:-0.962795 246:-0.92533 247:-0.856004 248:-0.92253 249:-0.763142 250:-0.735133 251:-0.765909 252:-0.811464 253:-0.909976 254:-0.916959 255:-0.865622 256:-0.815821 257:-0.895598 258:-0.654978 259:-0.638049 260:-0.661636 261:-0.744775 262:-0.876021 263:-0.835669 264:-0.711948 265:-0.606701 266:-0.817686 267:-0.487363 268:-0.397343 269:-0.540041 270:-0.681796 271:-0.838434 272:-0.722674 273:-0.595245 274:-0.375949 275:-0.776292 276:-0.202325 277:-0.427901 278:-0.611208 279:-0.75231 280:-0.83114 281:-0.664368 282:-0.437217 283:-0.249387 284:-0.439656 285:-0.221826 286:-0.399567 287:-0.699437 288:-0.764607 289:-0.720504 290:-0.606827 291:-0.41203 292:-0.23412 293:-0.786933 294:-0.440205 295:-0.662016 296:-0.781473 297:-0.841165 298:-0.652774 299:-0.565304 300:-0.402071 301:-0.497675 302:-0.835216 303:-0.600618 304:-0.797383 305:-0.841592 306:-0.853929 307:-0.68029 308:-0.657588 309:-0.64367 310:-0.678241 311:-0.897816 312:-0.690702 313:-0.785576 314:-0.833286 315:-0.89044 316:-0.780058 317:-0.791575 318:-0.777682 319:-0.827873 320:-0.946849 321:-0.867718 322:-0.946645 323:-0.914894 324:-0.959651 
1 1:-0.953488 2:-0.818182 3:-0.842466 4:-0.918794 5:-0.92381 6:-0.831522 7:-0.921725 8:-0.853659 9:-0.842989 10:-0.92914 11:-0.853348 12:-0.831186 13:-0.785358 14:-0.860465 15:-0.699929 16:-0.717589 17:-0.80504 18:-0.776517 19:-0.790092 20:-0.809904 21:-0.781211 22:-0.514144 23:-0.788991 24:-0.299601 25:-0.445393 26:-0.575238 27:-0.655138 28:-0.716543 29:-0.697717 30:-0.561518 31:-0.377751 32:-0.70363 33:-0.504275 34:-0.382399 35:-0.447615 36:-0.419838 37:-0.375743 38:-0.501582 39:-0.290607 40:0.294897 41:-0.0373234 42:0.464985 43:0.316611 44:-0.173929 45:-0.11709 46:-0.644768 47:-0.510195 48:-0.381371 49:-0.483795 50:-0.657954 51:-0.2363 52:-0.301439 53:-0.387249 54:-0.341513 55:-0.680953 56:-0.590741 57:-0.485208 58:-0.238281 59:-0.787106 60:-0.469856 61:-0.613726 62:-0.712787 63:-0.699307 64:-0.797766 65:-0.777337 66:-0.710774 67:-0.768963 68:-0.845455 69:-0.734996 70:-0.795257 71:-0.837184 72:-0.909228 73:-0.867426 74:-0.786976 75:-0.873383 76:-0.851412 77:-0.924528 78:-0.749559 79:-0.871886 80:-0.798432 81:-0.93177 82:-0.929134 83:-0.953224 84:-0.883146 85:-0.863839 86:-0.936726 87:-0.902492 88:-0.868554 89:-0.902323 90:-0.907554 91:-0.897646 92:-0.891866 93:-0.896949 94:-0.853559 95:-0.938042 96:-0.91018 97:-0.868136 98:-0.887744 99:-0.86892 100:-0.904052 101:-0.833107 102:-0.795221 103:-0.667296 104:-0.882945 105:-0.711814 106:-0.719871 107:-0.757584 108:-0.784194 109:-0.712397 110:-0.764892 111:-0.641953 112:-0.57402 113:-0.829244 114:-0.475289 115:-0.502929 116:-0.541652 117:-0.624127 118:-0.454145 119:-0.487535 120:-0.34276 121:-0.0489722 122:0.846184 123:0.0484726 124:-0.0198028 125:-0.227613 126:-0.109899 127:-0.646382 128:-0.634583 129:-0.573519 130:-0.466009 131:-0.81573 132:-0.509268 133:-0.526793 134:-0.576492 135:-0.496446 136:-0.819135 137:-0.73947 138:-0.706672 139:-0.633083 140:-0.887487 141:-0.665238 142:-0.735018 143:-0.731764 144:-0.726336 145:-0.873813 146:-0.922182 147:-0.897486 148:-0.785197 149:-0.923674 150:-0.810852 151:-0.86601 152:-0.876547 153:-0.721825 154:-0.920603 155:-0.887656 156:-0.932838 157:-0.896384 158:-0.966574 159:-0.786362 160:-0.872033 161:-0.842317 162:-0.864958 163:-0.899296 164:-0.90188 165:-1 166:-0.948298 167:-0.979757 168:-0.973184 169:-0.976549 170:-0.970116 171:-0.946103 172:-0.876387 173:-0.952923 174:-0.971789 175:-0.967222 176:-0.958333 177:-0.938901 178:-0.96951 179:-0.951695 180:-0.933448 181:-0.91489 182:-0.913733 183:-0.93136 184:-0.889882 185:-0.951976 186:-0.822646 187:-0.872163 188:-0.895481 189:-0.881814 190:-0.909124 191:-0.837434 192:-0.849138 193:-0.772979 194:-0.895363 195:-0.705858 196:-0.705563 197:-0.723917 198:-0.757336 199:-0.469029 200:-0.482188 201:-0.453155 202:-0.182979 203:0.904003 204:-0.0843092 205:-0.250291 206:-0.327978 207:-0.0903773 208:-0.751068 209:-0.735289 210:-0.716077 211:-0.676238 212:-0.88384 213:-0.7416 214:-0.759184 215:-0.811409 216:-0.81624 217:-0.875809 218:-0.878544 219:-0.875188 220:-0.782539 221:-0.948529 222:-0.858919 223:-0.891475 224:-0.912517 225:-0.925884 226:-0.946832 227:-0.944131 228:-0.945934 229:-0.961538 230:-0.986125 231:-0.949703 232:-0.964395 233:-0.94918 234:-0.969956 235:-0.988869 236:-0.945618 237:-0.949704 238:-0.96659 239:-0.953964 240:-0.97663 241:-0.971429 242:-0.944709 243:-0.965536 244:-0.959229 245:-0.94721 246:-0.969595 247:-0.885318 248:-0.966798 249:-0.893434 250:-0.928855 251:-0.944725 252:-0.921008 253:-0.939984 254:-0.935088 255:-0.920479 256:-0.907107 257:-0.948578 258:-0.83223 259:-0.842035 260:-0.890304 261:-0.908155 262:-0.910831 263:-0.945481 264:-0.854401 265:-0.812807 266:-0.889086 267:-0.710495 268:-0.676081 269:-0.763967 270:-0.857432 271:-0.916748 272:-0.848408 273:-0.747173 274:-0.681171 275:-0.83817 276:-0.454889 277:-0.623773 278:-0.775242 279:-0.904001 280:-0.920937 281:-0.844136 282:-0.676303 283:-0.480775 284:-0.572963 285:-0.435352 286:-0.642928 287:-0.829075 288:-0.861619 289:-0.892267 290:-0.788726 291:-0.616544 292:-0.4818 293:-0.834248 294:-0.678516 295:-0.778701 296:-0.855603 297:-0.884224 298:-0.864826 299:-0.78353 300:-0.662347 301:-0.732764 302:-0.88412 303:-0.801523 304:-0.87937 305:-0.859998 306:-0.897166 307:-0.890505 308:-0.846707 309:-0.839562 310:-0.839375 311:-0.918877 312:-0.904788 313:-0.928606 314:-0.954168 315:-0.96066 316:-0.931126 317:-0.929122 318:-0.922878 319:-0.928685 320:-0.968109 321:-0.894175 322:-0.936795 323:-0.93033 324:-0.959651 
1 1:-0.911205 2:-0.782763 3:-0.627854 4:-0.914153 5:-0.828571 6:-0.660326 7:-0.760383 8:-0.756098 9:-0.680563 10:-0.64859 11:-0.70457 12:-0.646907 13:-0.690516 14:-0.795349 15:-0.616419 16:-0.615277 17:-0.626696 18:-0.681792 19:-0.509656 20:-0.552011 21:-0.650104 22:-0.403908 23:-0.681957 24:-0.209055 25:-0.363146 26:-0.524925 27:-0.572932 28:-0.598673 29:-0.529056 30:-0.505651 31:-0.321053 32:-0.551155 33:-0.137715 34:-0.34049 35:-0.537353 36:-0.599393 37:-0.330712 38:-0.707621 39:-0.517813 40:0.0424322 41:0.285491 42:-0.135879 43:-0.623952 44:-0.864834 45:-0.866282 46:-0.530958 47:-0.468618 48:-0.280008 49:-0.118968 50:-0.523717 51:-0.279391 52:-0.459354 53:-0.525543 54:-0.605317 55:-0.579348 56:-0.510958 57:-0.391247 58:-0.28342 59:-0.757121 60:-0.513106 61:-0.523977 62:-0.672131 63:-0.619584 64:-0.659696 65:-0.705382 66:-0.661605 67:-0.586639 68:-0.8 69:-0.663289 70:-0.701562 71:-0.685369 72:-0.72466 73:-0.693423 74:-0.777042 75:-0.733152 76:-0.738484 77:-0.849057 78:-0.671958 79:-0.736655 80:-0.771557 81:-0.78678 82:-0.690766 83:-0.844802 84:-0.763403 85:-0.719308 86:-0.939477 87:-0.88369 88:-0.802831 89:-0.858736 90:-0.823725 91:-0.76868 92:-0.80815 93:-0.720896 94:-0.695403 95:-0.868649 96:-0.795641 97:-0.792555 98:-0.799765 99:-0.835805 100:-0.736323 101:-0.75834 102:-0.720556 103:-0.617299 104:-0.815398 105:-0.64193 106:-0.640333 107:-0.647817 108:-0.691085 109:-0.626571 110:-0.634153 111:-0.584141 112:-0.497277 113:-0.756935 114:-0.392905 115:-0.493945 116:-0.590161 117:-0.702233 118:-0.330932 119:-0.567599 120:-0.437425 121:-0.159393 122:0.781836 123:-0.258384 124:-0.531929 125:-0.730065 126:-0.706163 127:-0.606636 128:-0.590784 129:-0.48752 130:-0.416298 131:-0.751667 132:-0.53356 133:-0.551797 134:-0.603605 135:-0.642556 136:-0.685432 137:-0.698511 138:-0.649464 139:-0.665766 140:-0.841711 141:-0.643131 142:-0.66952 143:-0.654256 144:-0.691589 145:-0.851228 146:-0.810691 147:-0.827023 148:-0.784218 149:-0.875809 150:-0.797045 151:-0.782153 152:-0.832238 153:-0.738917 154:-0.824193 155:-0.846416 156:-0.817238 157:-0.816029 158:-0.902507 159:-0.802166 160:-0.753498 161:-0.864312 162:-0.764927 163:-0.972929 164:-0.960047 165:-0.967663 166:-0.915511 167:-0.97166 168:-0.93743 169:-0.912898 170:-0.910668 171:-0.976117 172:-0.864982 173:-0.863832 174:-0.840905 175:-0.922813 176:-0.951754 177:-0.857108 178:-0.886897 179:-0.890435 180:-0.882852 181:-0.687931 182:-0.756922 183:-0.827666 184:-0.811382 185:-0.888437 186:-0.715803 187:-0.751036 188:-0.799948 189:-0.832038 190:-0.670642 191:-0.702797 192:-0.600037 193:-0.617836 194:-0.8197 195:-0.46178 196:-0.609945 197:-0.651451 198:-0.697517 199:-0.396403 200:-0.537002 201:-0.530136 202:-0.279286 203:0.841191 204:-0.340047 205:-0.610738 206:-0.718125 207:-0.673733 208:-0.648839 209:-0.650293 210:-0.624153 211:-0.474793 212:-0.819503 213:-0.64609 214:-0.632476 215:-0.613067 216:-0.686098 217:-0.796766 218:-0.820426 219:-0.754551 220:-0.789554 221:-0.923529 222:-0.812259 223:-0.799955 224:-0.771527 225:-0.808413 226:-0.880674 227:-0.899714 228:-0.880543 229:-0.899901 230:-0.940535 231:-0.839503 232:-0.825704 233:-0.928962 234:-0.850428 235:-0.955475 236:-0.929818 237:-0.920671 238:-0.87212 239:-0.969309 240:-0.95326 241:-0.938224 242:-0.988704 243:-0.958866 244:-0.938292 245:-0.851181 246:-0.842611 247:-0.815377 248:-0.92253 249:-0.833708 250:-0.781099 251:-0.809362 252:-0.758193 253:-0.947283 254:-0.830409 255:-0.837271 256:-0.779681 257:-0.890923 258:-0.80891 259:-0.760891 260:-0.725794 261:-0.780044 262:-0.930647 263:-0.823876 264:-0.784538 265:-0.689489 266:-0.828314 267:-0.635936 268:-0.537966 269:-0.653442 270:-0.76236 271:-0.877591 272:-0.737973 273:-0.685319 274:-0.558603 275:-0.787819 276:-0.317305 277:-0.479216 278:-0.65277 279:-0.766662 280:-0.801247 281:-0.762741 282:-0.482207 283:-0.170727 284:-0.639995 285:-0.142487 286:-0.527847 287:-0.748488 288:-0.824487 289:-0.780259 290:-0.646127 291:-0.447371 292:-0.332965 293:-0.77893 294:-0.551663 295:-0.671383 296:-0.747036 297:-0.778274 298:-0.744311 299:-0.658877 300:-0.561562 301:-0.625756 302:-0.836811 303:-0.713103 304:-0.792885 305:-0.76592 306:-0.913526 307:-0.756212 308:-0.717853 309:-0.675906 310:-0.773835 311:-0.879095 312:-0.785913 313:-0.8548 314:-0.837296 315:-0.882403 316:-0.768898 317:-0.828901 318:-0.789638 319:-0.810137 320:-0.9347 321:-0.884508 322:-0.830084 323:-0.899458 324:-0.959651 
1 1:-0.255814 2:-0.190083 3:-0.242009 4:-0.412993 5:-0.466667 6:0.013587 7:0.191693 8:0.00654372 9:0.0438549 10:-0.114967 11:-0.168969 12:-0.0167526 13:0.166389 14:-0.255814 15:0.40552 16:0.447092 17:0.238992 18:-0.00964265 19:-0.0302267 20:0.150548 21:0.248434 22:0.402158 23:-0.12844 24:0.586773 25:0.435506 26:0.359147 27:0.311278 28:0.221678 29:0.163465 30:0.38381 31:0.544737 32:-0.0844884 33:0.00949675 34:0.502669 35:0.423223 36:0.371255 37:-0.154294 38:-0.451805 39:-0.213134 40:0.300275 41:-0.590754 42:0.397709 43:0.0529335 44:-0.422953 45:-0.436875 46:0.1969 47:0.392072 48:0.479712 49:0.0484556 50:-0.0493708 51:0.677283 52:0.473162 53:0.208249 54:0.140286 55:0.190468 56:0.437331 57:0.39169 58:0.610243 59:-0.148426 60:0.559633 61:0.426309 62:0.19541 63:0.130849 64:0.00601547 65:0.252691 66:0.372379 67:0.347251 68:-0.254545 69:0.0506625 70:0.103528 71:-0.00330033 72:-0.086233 73:-0.0409114 74:0.0827815 75:0.233492 76:0.0846954 77:-0.377358 78:0.047619 79:-0.107948 80:-0.113102 81:-0.147122 82:-0.277022 83:-0.380019 84:-0.35313 85:-0.175223 86:-0.559835 87:-0.0612156 88:-0.330164 89:-0.33223 90:-0.39257 91:-0.253224 92:-0.165372 93:-0.155683 94:0.0757672 95:-0.521685 96:-0.0916124 97:-0.142765 98:-0.06799 99:-0.11824 100:-0.0876518 101:0.00252133 102:0.0925854 103:0.392598 104:-0.373191 105:0.0906066 106:0.0154416 107:0.0417118 108:0.0869088 109:0.278091 110:0.242539 111:0.457864 112:0.46901 113:-0.275213 114:0.276461 115:0.416821 116:0.358528 117:0.120963 118:0.0776719 119:-0.0351831 120:0.237754 121:0.517322 122:0.309742 123:0.579254 124:0.409917 125:0.00783494 126:-0.0237679 127:0.146532 128:0.290729 129:0.411175 130:0.298878 131:-0.260615 132:0.332644 133:0.450043 134:0.332568 135:0.186486 136:0.0122942 137:0.0140398 138:0.0125911 139:0.0304043 140:-0.348021 141:0.493458 142:0.0971599 143:0.230316 144:-0.0499641 145:-0.319543 146:-0.171657 147:-0.0433713 148:0.0499315 149:-0.419146 150:0.0766257 151:-0.0680886 152:-0.238197 153:0.0443329 154:-0.33965 155:-0.328072 156:-0.241885 157:-0.171495 158:-0.601671 159:-0.125549 160:-0.303569 161:-0.160471 162:-0.226008 163:-0.59177 164:-0.532315 165:-0.714587 166:-0.515763 167:-0.88664 168:-0.527374 169:-0.616176 170:-0.609254 171:-0.709214 172:-0.739211 173:-0.423437 174:-0.464327 175:-0.454401 176:-0.703947 177:-0.42646 178:-0.535023 179:-0.529111 180:-0.607446 181:-0.405183 182:-0.320161 183:-0.304996 184:-0.0708679 185:-0.572959 186:-0.0475321 187:-0.238454 188:-0.234399 189:-0.224088 190:-0.146415 191:0.0741233 192:0.240555 193:0.212397 194:-0.371165 195:0.0551332 196:0.0660808 197:0.067589 198:0.0554424 199:0.159756 200:0.119137 201:0.276246 202:0.507342 203:0.421761 204:0.542837 205:0.306223 206:0.0604495 207:0.0650708 208:0.0553041 209:0.151502 210:0.0866482 211:0.047515 212:-0.368767 213:0.286054 214:0.212638 215:0.169247 216:-0.0928206 217:-0.298836 218:-0.271794 219:-0.209956 220:-0.115974 221:-0.579412 222:-0.124684 223:-0.210785 224:-0.140303 225:-0.291744 226:-0.523601 227:-0.450282 228:-0.452933 229:-0.539941 230:-0.702676 231:-0.39757 232:-0.440149 233:-0.484153 234:-0.517364 235:-0.647112 236:-0.617858 237:-0.758332 238:-0.574885 239:-0.69821 240:-0.622386 241:-0.32278 242:-0.447681 243:-0.577543 244:-0.796143 245:-0.753142 246:-0.373128 247:-0.478015 248:-0.702767 249:-0.321743 250:-0.280403 251:-0.291336 252:-0.189189 253:-0.647202 254:-0.467836 255:-0.491529 256:-0.250703 257:-0.582392 258:-0.154145 259:0.0599698 260:-0.0958448 261:-0.26343 262:-0.649485 263:-0.40261 264:-0.281653 265:-0.0509592 266:-0.415179 267:0.290001 268:0.339589 269:0.141373 270:-0.256281 271:-0.358144 272:-0.272424 273:0.0144647 274:0.269764 275:-0.377829 276:0.41506 277:0.252102 278:0.0104757 279:-0.279103 280:-0.227031 281:-0.0552542 282:0.226953 283:0.418744 284:0.10634 285:0.396463 286:0.199077 287:-0.0789925 288:-0.31512 289:-0.220308 290:0.0106594 291:0.327185 292:0.360243 293:-0.371772 294:0.285011 295:0.116388 296:-0.286488 297:-0.261569 298:-0.195602 299:0.0139268 300:0.293391 301:0.24618 302:-0.466312 303:-0.0336682 304:-0.327745 305:-0.383099 306:-0.612328 307:-0.155134 308:-0.0595325 309:0.0756713 310:-0.146872 311:-0.546802 312:-0.163419 313:-0.426435 314:-0.467774 315:-0.443739 316:-0.345932 317:-0.254544 318:-0.28576 319:-0.370858 320:-0.685649 321:-0.338082 322:-0.723784 323:-0.755528 324:-0.629226 
1 1:-0.564482 2:-0.489965 3:-0.294521 4:-0.635731 5:-0.657143 6:-0.342391 7:-0.456869 8:-0.474123 9:-0.486735 10:-0.414317 11:-0.253985 12:-0.310567 13:-0.251248 14:-0.627907 15:-0.314933 16:-0.402242 17:-0.427859 18:-0.48667 19:-0.0864819 20:-0.216351 21:-0.235908 22:-0.183435 23:-0.538226 24:-0.114514 25:-0.285843 26:-0.356364 27:-0.293233 28:-0.194185 29:-0.0250091 30:0.00854544 31:0.164593 32:-0.474587 33:-0.327351 34:-0.0313561 35:-0.00255261 36:0.0767206 37:-0.40037 38:-0.444834 39:-0.0796752 40:0.580633 41:-0.404508 42:0.698124 43:0.199758 44:-0.383086 45:-0.443341 46:0.0534077 47:-0.0170862 48:0.0228224 49:-0.276871 50:-0.439819 51:0.206089 52:0.0229483 53:-0.114436 54:0.0543967 55:-0.358928 56:-0.412706 57:-0.322548 58:-0.15625 59:-0.616192 60:-0.261468 61:-0.24769 62:-0.22623 63:-0.277296 64:-0.481524 65:-0.453258 66:-0.319595 67:-0.311065 68:-0.609091 69:-0.264224 70:-0.314054 71:-0.221122 72:-0.27534 73:-0.489384 74:-0.5883 75:-0.5371 76:-0.420505 77:-0.584906 78:-0.407407 79:-0.141163 80:-0.460246 81:-0.420043 82:-0.626342 83:-0.584426 84:-0.491814 85:-0.592634 86:-0.708391 87:-0.583297 88:-0.535187 89:-0.612889 90:-0.596918 91:-0.560287 92:-0.436816 93:-0.488248 94:-0.46339 95:-0.744734 96:-0.546938 97:-0.628311 98:-0.60534 99:-0.567744 100:-0.466995 101:-0.386443 102:-0.462797 103:-0.270408 104:-0.703377 105:-0.423325 106:-0.472477 107:-0.486207 108:-0.427158 109:-0.166069 110:-0.271054 111:-0.163322 112:-0.19242 113:-0.639159 114:-0.231791 115:-0.207959 116:-0.229772 117:-0.337804 118:-0.161576 119:-0.147051 120:0.0927046 121:0.396794 122:0.648014 123:0.469866 124:0.210994 125:-0.178572 126:-0.14563 127:-0.22209 128:-0.197113 129:-0.190379 130:-0.182982 131:-0.627049 132:-0.251882 133:-0.139052 134:-0.157429 135:-0.168611 136:-0.468349 137:-0.464623 138:-0.490431 139:-0.483158 140:-0.671016 141:-0.295849 142:-0.433211 143:-0.379838 144:-0.422358 145:-0.611838 146:-0.653864 147:-0.620638 148:-0.550029 149:-0.730918 150:-0.449399 151:-0.54006 152:-0.55508 153:-0.347933 154:-0.704682 155:-0.650597 156:-0.607612 157:-0.563967 158:-0.693593 159:-0.398303 160:-0.490961 161:-0.531599 162:-0.573617 163:-0.672983 164:-0.689777 165:-0.531107 166:-0.672131 167:-0.769231 168:-0.721788 169:-0.803781 170:-0.71626 171:-0.779893 172:-0.63656 173:-0.642116 174:-0.719206 175:-0.63521 176:-0.83114 177:-0.698941 178:-0.791924 179:-0.734485 180:-0.777347 181:-0.531342 182:-0.514679 183:-0.580814 184:-0.56498 185:-0.758404 186:-0.589382 187:-0.692903 188:-0.674212 189:-0.654534 190:-0.34217 191:-0.341756 192:-0.352699 193:-0.359014 194:-0.732397 195:-0.538114 196:-0.559966 197:-0.522466 198:-0.514508 199:-0.0574278 200:-0.0257296 201:0.0133844 202:0.282442 203:0.731609 204:0.334731 205:0.0174359 206:-0.117984 207:0.0442656 208:-0.445838 209:-0.518238 210:-0.561165 211:-0.530521 212:-0.718385 213:-0.393696 214:-0.384791 215:-0.400481 216:-0.322009 217:-0.631436 218:-0.664604 219:-0.702616 220:-0.612352 221:-0.799265 222:-0.507428 223:-0.530544 224:-0.510041 225:-0.532837 226:-0.758477 227:-0.785499 228:-0.645475 229:-0.773176 230:-0.736373 231:-0.643402 232:-0.642591 233:-0.613661 234:-0.497335 235:-0.756619 236:-0.689142 237:-0.871192 238:-0.602535 239:-0.836317 240:-0.538745 241:-0.688031 242:-0.473246 243:-0.643135 244:-0.796143 245:-0.654098 246:-0.742008 247:-0.53407 248:-0.783399 249:-0.54142 250:-0.548484 251:-0.593695 252:-0.622013 253:-0.716951 254:-0.566667 255:-0.642964 256:-0.578905 257:-0.724971 258:-0.41289 259:-0.451121 260:-0.46387 261:-0.626094 262:-0.719106 263:-0.673465 264:-0.625092 265:-0.594164 266:-0.680883 267:-0.215858 268:-0.321287 269:-0.429869 270:-0.509402 271:-0.719728 272:-0.563002 273:-0.513353 274:-0.402672 275:-0.64036 276:-0.0944415 277:-0.259844 278:-0.444705 279:-0.53745 280:-0.555055 281:-0.537985 282:-0.368977 283:-0.122711 284:-0.14109 285:-0.142216 286:-0.365392 287:-0.548975 288:-0.617306 289:-0.545776 290:-0.473129 291:-0.217671 292:-0.101929 293:-0.663059 294:-0.435091 295:-0.479173 296:-0.573566 297:-0.717706 298:-0.59013 299:-0.406249 300:-0.362098 301:-0.261127 302:-0.694352 303:-0.500718 304:-0.635248 305:-0.617737 306:-0.637453 307:-0.590252 308:-0.414996 309:-0.452729 310:-0.431191 311:-0.732449 312:-0.469933 313:-0.642788 314:-0.726153 315:-0.665821 316:-0.483681 317:-0.537516 318:-0.581646 319:-0.592458 320:-0.722096 321:-0.567031 322:-0.665504 323:-0.806842 324:-0.811341 
1 1:-0.226216 2:-0.0271547 3:-0.0182648 4:-0.415313 5:-0.257143 6:-0.0896739 7:-0.0447284 8:-0.121951 9:-0.142393 10:-0.126537 11:-0.088204 12:-0.0283505 13:0.0183028 14:-0.181395 15:0.160651 16:0.0630694 17:0.0373858 18:-0.00907544 19:0.0285474 20:0.0594882 21:0.124843 22:0.172353 23:-0.107034 24:0.498447 25:0.217303 26:0.12984 27:0.255806 28:-0.233054 29:0.0187266 30:0.261784 31:0.56866 32:0.0382838 33:0.199731 34:0.443777 35:0.374213 36:0.456275 37:-0.681276 38:-0.521681 39:-0.0865011 40:0.573728 41:-0.703963 42:0.542642 43:0.0528527 44:-0.132638 45:0.221786 46:0.10294 47:0.267798 48:0.475116 49:0.215584 50:0.0571152 51:0.601874 52:0.581875 53:0.59132 54:0.689162 55:0.021347 56:0.150209 57:0.191579 58:0.369358 59:-0.0554723 60:0.292923 61:0.234492 62:0.188197 63:0.35182 64:0.0398167 65:0.186402 66:0.0694143 67:0.125957 68:-0.227273 69:-0.0210444 70:-0.0121457 71:-0.0253025 72:0.0438729 73:-0.0709477 74:0.00110375 75:-0.121852 76:0.00445765 77:-0.264151 78:-0.047619 79:-0.084223 80:-0.0705487 81:0.0916844 82:-0.239084 83:-0.286467 84:-0.0394864 85:-0.316406 86:-0.38652 87:-0.284652 88:-0.375633 89:-0.329353 90:-0.28772 91:-0.170317 92:-0.165055 93:-0.0465481 94:-0.272125 95:-0.401487 96:-0.23823 97:-0.345042 98:-0.319615 99:-0.176881 100:-0.0579536 101:-0.120248 102:-0.10661 103:0.0270579 104:-0.351794 105:-0.210891 106:-0.182999 107:-0.117798 108:-0.0826115 109:-0.0236083 110:-0.0486663 111:0.104777 112:0.182293 113:-0.289334 114:0.171206 115:0.241881 116:0.215666 117:0.204446 118:-0.262393 119:-0.0398361 120:0.403412 121:0.733994 122:0.287114 123:0.722637 124:0.463775 125:0.309026 126:0.806834 127:0.0924807 128:0.228453 129:0.268393 130:0.180679 131:-0.259913 132:0.164203 133:0.245911 134:0.316495 135:0.437435 136:-0.0959958 137:-0.141657 138:-0.194318 139:-0.192297 140:-0.306952 141:-0.0523348 142:-0.0502786 143:0.0281089 144:0.056554 145:-0.328936 146:-0.349992 147:-0.339382 148:-0.221265 149:-0.411384 150:-0.111418 151:-0.131529 152:-0.257143 153:-0.179148 154:-0.379349 155:-0.275597 156:-0.336115 157:-0.290336 158:-0.339833 159:-0.32631 160:-0.357334 161:-0.383209 162:-0.314786 163:-0.123985 164:-0.282021 165:-0.299121 166:-0.441362 167:-0.502024 168:-0.422346 169:-0.472123 170:-0.48329 171:-0.456834 172:-0.156905 173:-0.299924 174:-0.391504 175:-0.471848 176:-0.47807 177:-0.48608 178:-0.367326 179:-0.425464 180:-0.407359 181:-0.0476266 182:-0.208293 183:-0.0680101 184:-0.114261 185:-0.38973 186:-0.216757 187:-0.358143 188:-0.362279 189:-0.263677 190:0.0149708 191:0.0811278 192:0.112106 193:0.136038 194:-0.317897 195:-0.12585 196:-0.120909 197:-0.116556 198:-0.0299785 199:-0.207079 200:0.0571769 201:0.298614 202:0.612759 203:0.326365 204:0.60955 205:0.227291 206:0.254621 207:0.716816 208:0.0257955 209:-0.0864385 210:-0.120727 211:-0.139478 212:-0.333249 213:0.0623848 214:0.21543 215:0.136714 216:0.10444 217:-0.337387 218:-0.368853 219:-0.345208 220:-0.182463 221:-0.401471 222:-0.211621 223:-0.122846 224:0.0379642 225:-0.0475032 226:-0.45125 227:-0.495164 228:-0.49033 229:-0.300296 230:-0.405352 231:-0.485165 232:-0.267887 233:-0.148087 234:-0.230173 235:-0.515343 236:-0.568988 237:-0.419342 238:-0.323733 239:-0.360614 240:-0.340713 241:-0.104247 242:-0.374554 243:-0.214008 244:-0.57135 245:-0.430367 246:-0.395037 247:-0.314991 248:-0.46087 249:-0.294948 250:-0.33044 251:-0.139464 252:-0.0783392 253:-0.394161 254:-0.383041 255:-0.368906 256:-0.320037 257:-0.357226 258:-0.229402 259:-0.0920129 260:-0.0659872 261:-0.146199 262:-0.290936 263:-0.305172 264:-0.267597 265:-0.198379 266:-0.282464 267:0.0287267 268:0.174037 269:0.15242 270:0.109823 271:-0.182291 272:-0.156386 273:-0.0628524 274:0.101913 275:-0.311061 276:0.385319 277:0.389569 278:0.220628 279:0.0965579 280:-0.185711 281:0.0664092 282:0.283031 283:0.62098 284:0.252415 285:0.561863 286:0.189736 287:-0.0495622 288:-0.109946 289:0.0207179 290:0.256114 291:0.566468 292:0.365267 293:-0.330749 294:0.0855387 295:0.0292537 296:-0.151424 297:-0.208683 298:0.148214 299:0.162685 300:0.210905 301:-0.0479983 302:-0.309502 303:-0.191412 304:-0.265999 305:-0.238449 306:-0.369851 307:0.0456388 308:-0.0704535 309:-0.078765 310:-0.315307 311:-0.424337 312:-0.258352 313:-0.229619 314:-0.408765 315:-0.341794 316:-0.224862 317:-0.247748 318:-0.296316 319:-0.389527 320:-0.463933 321:-0.40117 322:-0.370819 323:-0.573634 324:-0.343511 
1 1:-0.864693 2:-0.874852 3:-0.757991 4:-0.828306 5:-0.828571 6:-0.709239 7:-0.610224 8:-0.622844 9:-0.718462 10:-0.861171 11:-0.791711 12:-0.689433 13:-0.63228 14:-0.665116 15:-0.319179 16:-0.320953 17:-0.454445 18:-0.565513 19:-0.662469 20:-0.615155 21:-0.473904 22:-0.274424 23:-0.529052 24:0.138926 25:0.078427 26:-0.1361 27:-0.313952 28:-0.709591 29:-0.568926 30:-0.242856 31:0.103589 32:-0.285149 33:0.0990304 34:0.163088 35:-0.133473 36:-0.263158 37:-0.11654 38:-0.148862 39:0.0403336 40:0.473074 41:-0.301095 42:0.246107 43:-0.241644 44:-0.587284 45:-0.483141 46:-0.386142 47:-0.192163 48:0.136336 49:0.0968375 50:-0.28364 51:0.128806 52:-0.0910152 53:-0.213101 54:-0.148466 55:-0.426444 56:-0.238611 57:0.0801108 58:0.0815972 59:-0.481259 60:-0.241809 61:-0.369116 62:-0.493115 63:-0.584055 64:-0.631051 65:-0.496884 66:-0.293565 67:-0.344468 68:-0.718182 69:-0.618083 70:-0.644881 71:-0.672167 72:-0.677761 73:-0.708959 74:-0.65011 75:-0.646018 76:-0.625557 77:-0.830189 78:-0.62963 79:-0.810202 80:-0.834267 81:-0.837953 82:-0.801002 83:-0.773151 84:-0.779133 85:-0.762277 86:-0.856946 87:-0.625273 88:-0.68358 89:-0.753147 90:-0.717308 91:-0.734698 92:-0.725067 93:-0.59093 94:-0.607793 95:-0.767038 96:-0.553354 97:-0.578327 98:-0.502213 99:-0.628071 100:-0.689552 101:-0.557506 102:-0.520841 103:-0.239403 104:-0.615272 105:-0.174285 106:-0.109077 107:-0.308047 108:-0.442109 109:-0.602682 110:-0.538963 111:-0.237237 112:-0.00274565 113:-0.458388 114:0.298826 115:0.0354366 116:-0.22601 117:-0.441945 118:-0.159757 119:-0.129614 120:0.00749139 121:0.234877 122:0.514445 123:0.114872 124:-0.19925 125:-0.420964 126:-0.286837 127:-0.507764 128:-0.293145 129:0.0131854 130:0.26521 131:-0.436162 132:-0.0365013 133:-0.177774 134:-0.317277 135:-0.402305 136:-0.516152 137:-0.313437 138:-0.223529 139:-0.179176 140:-0.588021 141:-0.25344 142:-0.431037 143:-0.479225 144:-0.696022 145:-0.698173 146:-0.629973 147:-0.508034 148:-0.389857 149:-0.739974 150:-0.531134 151:-0.575244 152:-0.724981 153:-0.723107 154:-0.698596 155:-0.761234 156:-0.63061 157:-0.720025 158:-0.852368 159:-0.730758 160:-0.780538 161:-0.646221 162:-0.803063 163:-0.959935 164:-0.934783 165:-0.843937 166:-0.952081 167:-0.995951 168:-0.877095 169:-0.92917 170:-0.970116 171:-0.934162 172:-0.782984 173:-0.778284 174:-0.807118 175:-0.81179 176:-0.914474 177:-0.862528 178:-0.81438 179:-0.923065 180:-0.922812 181:-0.650685 182:-0.667594 183:-0.596558 184:-0.3587 185:-0.763576 186:-0.391456 187:-0.51556 188:-0.633576 189:-0.782714 190:-0.56272 191:-0.383961 192:-0.152399 193:0.124837 194:-0.493136 195:-0.00713713 196:-0.317866 197:-0.528211 198:-0.667428 199:-0.345911 200:-0.280043 201:-0.162344 202:0.193628 203:0.558613 204:0.10532 205:-0.328155 206:-0.522266 207:-0.370138 208:-0.704353 209:-0.574196 210:-0.34312 211:-0.010797 212:-0.489098 213:0.054832 214:-0.0047759 215:-0.219214 216:-0.51429 217:-0.780789 218:-0.692461 219:-0.581392 220:-0.430728 221:-0.744853 222:-0.326951 223:-0.450436 224:-0.611142 225:-0.761625 226:-0.89744 227:-0.939797 228:-0.889518 229:-0.870316 230:-0.904856 231:-0.71913 232:-0.679891 233:-0.846448 234:-0.832337 235:-0.96089 236:-0.945618 237:-0.973421 238:-0.971198 239:-0.969309 240:-0.869619 241:-0.905019 242:-0.959572 243:-1 244:-1 245:-0.934641 246:-0.973619 247:-0.941373 248:-0.947826 249:-0.658417 250:-0.561449 251:-0.483892 252:-0.409975 253:-1 254:-0.988889 255:-0.940302 256:-0.872842 257:-0.871445 258:-0.235126 259:-0.143898 260:-0.189403 261:-0.382112 262:-0.980185 263:-0.992073 264:-0.928879 265:-0.735639 266:-0.702139 267:0.225833 268:0.140902 269:-0.138094 270:-0.496191 271:-0.968957 272:-0.917147 273:-0.796076 274:-0.426076 275:-0.535218 276:0.2365 277:0.0719705 278:-0.423157 279:-0.707189 280:-0.897392 281:-0.749502 282:-0.431586 283:-0.15308 284:-0.338138 285:-0.163035 286:-0.451472 287:-0.772622 288:-0.90087 289:-0.758189 290:-0.445579 291:0.135872 292:0.14404 293:-0.52927 294:-0.457013 295:-0.777646 296:-0.886714 297:-0.950331 298:-0.452314 299:-0.177774 300:0.0683201 301:0.251956 302:-0.712691 303:-0.759686 304:-0.932938 305:-0.931208 306:-0.956763 307:-0.451285 308:-0.268762 309:-0.117374 310:-0.270396 311:-0.863495 312:-0.877506 313:-0.96575 314:-0.961043 315:-1 316:-0.571874 317:-0.517234 318:-0.526928 319:-0.719033 320:-0.955961 321:-0.966421 322:-0.969629 323:-0.984564 324:-0.97928 
1 1:-0.530655 2:-0.622196 3:-0.431507 4:-0.559165 5:-0.580952 6:-0.475543 7:-0.196486 8:-0.273052 9:-0.28641 10:-0.340564 11:-0.273114 12:-0.155928 13:-0.24792 14:-0.376744 15:-0.102619 16:0.0224247 17:0.117696 18:-0.182076 19:-0.286314 20:-0.153872 21:-0.0847599 22:-0.0230388 23:-0.275229 24:0.549933 25:0.197303 26:0.145838 27:-0.0419382 28:-0.258967 29:-0.147759 30:0.125241 31:0.407177 32:-0.163036 33:-0.0227573 34:0.256853 35:0.198253 36:-0.0370445 37:-0.56022 38:-0.53156 39:-0.0503539 40:0.59899 41:-0.629863 42:0.58289 43:0.745976 44:0.0236897 45:-0.447883 46:-0.0938652 47:0.18157 48:0.325526 49:-0.0114085 50:-0.150694 51:0.52459 52:0.172695 53:-0.0335625 54:-0.267076 55:-0.11203 56:0.260281 57:0.306371 58:0.501302 59:-0.313343 60:0.267366 61:-0.118346 62:-0.112787 63:-0.34662 64:-0.162418 65:0.0124646 66:0.187274 67:0.226166 68:-0.4 69:-0.198753 70:-0.272412 71:-0.265127 72:-0.502269 73:-0.37131 74:-0.396247 75:-0.436351 76:-0.236256 77:-0.603774 78:-0.425044 79:-0.504152 80:-0.552072 81:-0.654584 82:-0.353615 83:-0.481141 84:-0.453612 85:-0.579799 86:-0.694635 87:-0.472672 88:-0.574868 89:-0.510178 90:-0.557746 91:-0.513408 92:-0.529095 93:-0.50742 94:-0.303706 95:-0.491945 96:-0.195773 97:-0.367975 98:-0.374118 99:-0.429995 100:-0.362871 101:-0.242533 102:-0.292949 103:0.0859791 104:-0.45836 105:-0.0293753 106:0.00964726 107:-0.115083 108:-0.356163 109:-0.226696 110:-0.211462 111:-0.000890752 112:0.154521 113:-0.369154 114:0.142487 115:0.167066 116:0.0487834 117:-0.193035 118:-0.299342 119:-0.225596 120:0.228185 121:0.5376 122:0.413898 123:0.502454 124:0.647169 125:0.0900311 126:-0.0659582 127:-0.204168 128:-0.0106669 129:0.163162 130:0.115215 131:-0.384029 132:0.163107 133:0.095468 134:-0.0370063 135:-0.366761 136:-0.268207 137:-0.0323456 138:0.00779167 139:-0.0636333 140:-0.437861 141:-0.0110535 142:-0.250713 143:-0.212264 144:-0.4607 145:-0.457679 146:-0.407305 147:-0.282232 148:-0.238692 149:-0.517464 150:-0.236228 151:-0.453651 152:-0.464324 153:-0.59171 154:-0.480462 155:-0.436149 156:-0.531698 157:-0.565659 158:-0.724234 159:-0.400644 160:-0.595975 161:-0.613383 162:-0.801188 163:-0.858148 164:-0.615746 165:-0.770123 166:-0.68348 167:-0.882591 168:-0.732961 169:-0.650634 170:-0.688625 171:-0.641439 172:-0.667694 173:-0.528727 174:-0.397737 175:-0.684906 176:-0.765351 177:-0.567874 178:-0.545529 179:-0.537428 180:-0.486417 181:-0.47159 182:-0.450953 183:-0.467045 184:-0.298735 185:-0.637237 186:-0.0243053 187:-0.247561 188:-0.266804 189:-0.352719 190:-0.368182 191:-0.32327 192:-0.204348 193:-0.131682 194:-0.459607 195:-0.0651421 196:-0.0152845 197:-0.144834 198:-0.26298 199:-0.307664 200:-0.163292 201:0.110066 202:0.444887 203:0.513447 204:0.440735 205:0.301687 206:-0.0236435 207:-0.195337 208:-0.29468 209:-0.146631 210:-0.0745596 211:-0.0459186 212:-0.480124 213:-0.131728 214:-0.294342 215:-0.27363 216:-0.512298 217:-0.318823 218:-0.19186 219:-0.25491 220:-0.0427754 221:-0.602206 222:-0.131286 223:-0.382188 224:-0.540578 225:-0.733724 226:-0.50472 227:-0.529676 228:-0.601881 229:-0.409763 230:-0.80773 231:-0.595931 232:-0.78942 233:-0.651913 234:-0.739622 235:-0.626354 236:-0.591769 237:-0.788591 238:-0.540323 239:-0.877238 240:-0.742927 241:-0.592278 242:-0.727705 243:-0.866593 244:-0.963636 245:-0.824535 246:-0.813995 247:-0.647724 248:-0.810277 249:-0.594396 250:-0.521269 251:-0.502955 252:-0.694738 253:-0.841038 254:-0.763158 255:-0.586263 256:-0.55615 257:-0.696143 258:-0.330799 259:-0.250629 260:-0.481445 261:-0.548665 262:-0.798634 263:-0.635766 264:-0.565509 265:-0.31478 266:-0.516828 267:-0.0926065 268:0.0212437 269:-0.272883 270:-0.374534 271:-0.715495 272:-0.617842 273:-0.297703 274:-0.0191308 275:-0.499888 276:0.217882 277:-0.0380577 278:-0.312098 279:-0.60122 280:-0.592567 281:-0.414054 282:-0.0303901 283:0.155276 284:-0.113151 285:0.141412 286:0.0130182 287:-0.443712 288:-0.445361 289:-0.503206 290:-0.217082 291:-0.00139408 292:0.197839 293:-0.477677 294:-0.0204803 295:-0.250355 296:-0.524325 297:-0.620511 298:-0.479502 299:-0.212223 300:0.0632112 301:-0.0950605 302:-0.58804 303:-0.439784 304:-0.684318 305:-0.690062 306:-0.75168 307:-0.47904 308:-0.289605 309:-0.282267 310:-0.527294 311:-0.712949 312:-0.543708 313:-0.716353 314:-0.762819 315:-0.72335 316:-0.62647 317:-0.585091 318:-0.594033 319:-0.586484 320:-0.802582 321:-0.802595 322:-0.691361 323:-0.841051 324:-0.881134 
1 1:-0.310782 2:-0.29634 3:-0.212329 4:-0.424594 5:-0.52381 6:-0.11413 7:-0.198083 8:-0.164783 9:-0.183541 10:-0.282719 11:-0.105207 12:0.0309278 13:0.0798669 14:-0.348837 15:0.0813871 16:-0.0644709 17:-0.106065 18:-0.0760068 19:-0.175483 20:0.0295779 21:0.110647 22:0.15019 23:-0.293578 24:0.285397 25:0.18427 26:0.0734987 27:0.0502924 28:-0.204298 29:-0.0535218 30:0.380318 31:0.438517 32:-0.164356 33:-0.0067549 34:0.416363 35:0.291168 36:0.163563 37:-0.426037 38:-0.450436 39:-0.128667 40:0.431031 41:-0.549993 42:0.399489 43:0.0328991 44:-0.349797 45:0.309777 46:0.183288 47:0.281581 48:0.422357 49:-0.0348635 50:-0.15263 51:0.517799 52:0.394788 53:0.193961 54:0.0302658 55:-0.0104253 56:0.0923418 57:0.121108 58:0.302083 59:-0.34033 60:0.229358 61:0.182578 62:-0.0662295 63:-0.151646 64:-0.285019 65:-0.0538244 66:-0.00867679 67:0.100905 68:-0.363636 69:-0.14887 70:-0.0514748 71:-0.124312 72:-0.263238 73:-0.243915 74:-0.237307 75:-0.323349 76:-0.230312 77:-0.509434 78:-0.0229277 79:-0.11981 80:-0.285554 81:-0.253731 82:-0.266285 83:-0.373259 84:-0.380738 85:-0.09375 86:-0.502063 87:-0.373415 88:-0.213186 89:-0.358268 90:-0.425606 91:-0.248106 92:-0.352148 93:-0.157157 94:-0.198268 95:-0.547708 96:-0.213511 97:-0.311612 98:-0.317886 99:-0.270783 100:-0.196465 101:-0.144589 102:-0.136606 103:0.217436 104:-0.457101 105:-0.0849796 106:-0.0339894 107:-0.0949141 108:-0.14255 109:-0.0453766 110:0.121025 111:0.31992 112:0.35995 113:-0.354231 114:0.272288 115:0.329939 116:0.226108 117:0.0271174 118:-0.148202 119:-0.0801946 120:0.192699 121:0.509039 122:0.379396 123:0.503599 124:0.262966 125:-0.0495991 126:0.580865 127:0.0805221 128:0.159908 129:0.314556 130:0.256217 131:-0.332598 132:0.242519 133:0.207328 134:0.146975 135:-0.00434813 136:-0.17695 137:-0.074318 138:-0.0756355 139:-0.0322267 140:-0.423743 141:0.162531 142:-0.158174 143:-0.0119205 144:-0.192308 145:-0.311255 146:-0.34159 147:-0.335142 148:-0.131584 149:-0.560155 150:0.0352064 151:-0.272081 152:-0.26906 153:-0.152014 154:-0.322913 155:-0.43686 156:-0.384349 157:-0.2011 158:-0.601671 159:-0.265438 160:-0.405754 161:-0.422553 162:-0.419193 163:-0.497564 164:-0.629847 165:-0.528998 166:-0.257251 167:-0.720648 168:-0.6 169:-0.67217 170:-0.71144 171:-0.677263 172:-0.542848 173:-0.503417 174:-0.314417 175:-0.460745 176:-0.710526 177:-0.432865 178:-0.579728 179:-0.567978 180:-0.65258 181:-0.29408 182:-0.15055 183:-0.34068 184:-0.191888 185:-0.607684 186:-0.288428 187:-0.34171 188:-0.471146 189:-0.488765 190:-0.0515538 191:0.0337368 192:0.237631 193:0.162549 194:-0.458721 195:-0.10144 196:-0.192 197:-0.24445 198:-0.253152 199:-0.0251547 200:0.0984501 201:0.242683 202:0.505959 203:0.488533 204:0.498918 205:0.207559 206:-0.0456146 207:0.482752 208:-0.240202 209:-0.266697 210:-0.19522 211:-0.114523 212:-0.4441 213:0.14493 214:0.20878 215:0.172033 216:-0.0251487 217:-0.524256 218:-0.512184 219:-0.484439 220:-0.257644 221:-0.657353 222:-0.0417079 223:-0.24256 224:-0.106327 225:-0.253684 226:-0.597613 227:-0.596843 228:-0.566193 229:-0.47929 230:-0.70664 231:-0.520769 232:-0.495083 233:-0.357377 234:-0.376837 235:-0.700963 236:-0.729928 237:-0.65365 238:-0.514977 239:-0.667519 240:-0.462485 241:-0.556757 242:-0.344828 243:-0.481934 244:-0.646281 245:-0.695827 246:-0.517103 247:-0.389046 248:-0.70751 249:-0.322561 250:-0.196936 251:-0.251504 252:-0.144405 253:-0.564477 254:-0.523392 255:-0.501441 256:-0.373846 257:-0.647838 258:0.122282 259:0.0687357 260:-0.0232589 261:-0.189265 262:-0.618155 263:-0.533108 264:-0.454317 265:-0.212105 266:-0.464505 267:0.527999 268:0.304069 269:0.11166 270:-0.191522 271:-0.480201 272:-0.350859 273:-0.180568 274:0.0251177 275:-0.439507 276:0.388105 277:0.26822 278:-0.0622152 279:-0.232693 280:-0.38735 281:-0.35264 282:-0.0622025 283:0.125278 284:0.168633 285:0.114816 286:-0.0817591 287:-0.324005 288:-0.471008 289:-0.205217 290:0.00972473 291:0.372792 292:0.326111 293:-0.429506 294:0.0394647 295:-0.217242 296:-0.393445 297:-0.534572 298:-0.189551 299:0.0988636 300:0.242642 301:0.529219 302:-0.499003 303:-0.18247 304:-0.425475 305:-0.424933 306:-0.487876 307:-0.170394 308:0.0658587 309:0.0125603 310:-0.0027167 311:-0.628705 312:-0.197105 313:-0.592861 314:-0.521054 315:-0.561337 316:-0.302976 317:-0.120341 318:-0.294377 319:-0.220386 320:-0.694761 321:-0.367591 322:-0.607223 323:-0.683354 324:-0.670665 
1 1:-0.526427 2:-0.565525 3:-0.390411 4:-0.559165 5:-0.657143 6:-0.48913 7:-0.340256 8:-0.526472 9:-0.592853 10:-0.408532 11:-0.511158 12:-0.225515 13:-0.387687 14:-0.581395 15:-0.2385 16:-0.320953 17:-0.364165 18:-0.389109 19:-0.337531 20:-0.296776 21:-0.190814 22:-0.259843 23:-0.504587 24:0.0554816 25:-0.0822472 26:-0.228379 27:-0.287886 28:-0.459314 29:-0.338891 30:-0.205734 31:0.107416 32:-0.448845 33:-0.119021 34:-0.0228651 35:-0.143797 36:-0.216599 37:-0.482244 38:-0.381757 39:-0.200356 40:0.318485 41:-0.214329 42:0.350725 43:-0.166879 44:-0.452854 45:-0.522633 46:-0.263257 47:-0.133159 48:0.0309441 49:-0.0565029 50:-0.398516 51:0.0866511 52:-0.117853 53:-0.31635 54:-0.359509 55:-0.324177 56:-0.140113 57:-0.0648199 58:-0.0282118 59:-0.547226 60:-0.163827 61:-0.217774 62:-0.385574 63:-0.436742 64:-0.368662 65:-0.350708 66:-0.315257 67:-0.230341 68:-0.681818 69:-0.365549 70:-0.499132 71:-0.50055 72:-0.609682 73:-0.581564 74:-0.550773 75:-0.509871 76:-0.396731 77:-0.716981 78:-0.453263 79:-0.537367 80:-0.592385 81:-0.663113 82:-0.597709 83:-0.56604 84:-0.636597 85:-0.516741 86:-0.793673 87:-0.631832 88:-0.511626 89:-0.698051 90:-0.69968 91:-0.585466 92:-0.539876 93:-0.596645 94:-0.48733 95:-0.712515 96:-0.517502 97:-0.576227 98:-0.52075 99:-0.531026 100:-0.449922 101:-0.399147 102:-0.401766 103:-0.201762 104:-0.667296 105:-0.35689 106:-0.357994 107:-0.371269 108:-0.441527 109:-0.319694 110:-0.31159 111:-0.15686 112:-0.0829995 113:-0.604206 114:-0.0509773 115:-0.12222 116:-0.211375 117:-0.410795 118:-0.337447 119:-0.219001 120:-0.0908609 121:0.181375 122:0.625386 123:0.199863 124:-0.115131 125:-0.350041 126:-0.273474 127:-0.322517 128:-0.249959 129:-0.115374 130:-0.0556968 131:-0.588751 132:-0.127259 133:-0.194096 134:-0.296612 135:-0.477259 136:-0.522059 137:-0.382018 138:-0.329205 139:-0.370288 140:-0.660321 141:-0.269795 142:-0.422476 143:-0.396223 144:-0.483705 145:-0.633387 146:-0.558175 147:-0.582736 148:-0.436264 149:-0.72445 150:-0.488334 151:-0.436514 152:-0.619862 153:-0.525264 154:-0.70897 155:-0.696246 156:-0.690241 157:-0.551279 158:-0.821727 159:-0.559848 160:-0.613897 161:-0.58891 162:-0.637387 163:-0.873308 164:-0.86604 165:-0.794025 166:-0.775536 167:-0.935223 168:-0.834637 169:-0.796123 170:-0.835476 171:-0.854446 172:-0.771578 173:-0.789927 174:-0.712318 175:-0.781126 176:-0.890351 177:-0.701897 178:-0.794602 179:-0.831094 180:-0.795889 181:-0.685871 182:-0.677056 183:-0.673594 184:-0.538814 185:-0.821204 186:-0.433264 187:-0.58547 188:-0.624649 189:-0.668461 190:-0.464316 191:-0.39726 192:-0.389055 193:-0.335491 194:-0.698868 195:-0.275518 196:-0.364965 197:-0.412433 198:-0.433106 199:-0.274827 200:-0.184047 201:-0.112512 202:0.126442 203:0.721082 204:0.147116 205:-0.188933 206:-0.329549 207:-0.30766 208:-0.345935 209:-0.392289 210:-0.39166 211:-0.313826 212:-0.681097 213:-0.413024 214:-0.362711 215:-0.390775 216:-0.566524 217:-0.657439 218:-0.555112 219:-0.636263 220:-0.526191 221:-0.806618 222:-0.560911 223:-0.673976 224:-0.648006 225:-0.590213 226:-0.806057 227:-0.82713 228:-0.805748 229:-0.751479 230:-0.885035 231:-0.769426 232:-0.821974 233:-0.687978 234:-0.688903 235:-0.894103 236:-0.76851 237:-0.860969 238:-0.932028 239:-0.882353 240:-0.816728 241:-0.899614 242:-0.783591 243:-0.869928 244:-0.836915 245:-0.863248 246:-0.753186 247:-0.543327 248:-0.833992 249:-0.616077 250:-0.594557 251:-0.540764 252:-0.661444 253:-0.864964 254:-0.763743 255:-0.712804 256:-0.583991 257:-0.783405 258:-0.413915 259:-0.408535 260:-0.417287 261:-0.611043 262:-0.717231 263:-0.705558 264:-0.629707 265:-0.41378 266:-0.678158 267:-0.168412 268:-0.153753 269:-0.368527 270:-0.669801 271:-0.679337 272:-0.644885 273:-0.396991 274:-0.192642 275:-0.619801 276:-0.0189723 277:-0.266267 278:-0.503428 279:-0.638262 280:-0.65801 281:-0.530814 282:-0.276588 283:-0.110427 284:-0.359626 285:-0.0681493 286:-0.261917 287:-0.517017 288:-0.74186 289:-0.687094 290:-0.492801 291:-0.244297 292:-0.0540584 293:-0.629385 294:-0.250252 295:-0.398964 296:-0.604677 297:-0.761837 298:-0.585443 299:-0.416214 300:-0.212082 301:-0.15653 302:-0.671495 303:-0.426316 304:-0.626252 305:-0.637259 306:-0.718668 307:-0.582527 308:-0.46727 309:-0.388318 310:-0.426267 311:-0.797192 312:-0.50529 313:-0.678485 314:-0.724434 315:-0.749154 316:-0.677826 317:-0.549167 318:-0.586708 319:-0.60982 320:-0.781321 321:-0.646909 322:-0.68069 323:-0.830204 324:-0.938931 
1 1:0.412262 2:0.461629 3:0.255708 4:-0.0417633 5:0.047619 6:0.442935 7:0.447284 8:0.645449 9:0.377369 10:0.483731 11:0.57067 12:0.655928 13:0.505824 14:0.237209 15:0.682944 16:0.592151 17:0.510385 18:0.461146 19:0.745592 20:0.71552 21:0.667641 22:0.535725 23:0.0856269 24:0.590768 25:0.427191 26:0.498725 27:0.732665 28:0.214094 29:0.429503 30:0.614445 31:0.579665 32:0.0554455 33:-0.296094 34:0.410905 35:0.690964 36:0.826721 37:-0.422463 38:-0.223443 39:0.550295 40:0.233247 41:-0.808332 42:-0.0939678 43:0.352398 44:0.991604 45:0.486605 46:0.620947 47:0.728329 48:0.450751 49:-0.250276 50:0.0622782 51:0.604918 52:0.642552 53:0.569484 54:0.614315 55:0.801754 56:0.517607 57:0.383047 58:0.381076 59:0.0944528 60:0.542595 61:0.641883 62:0.712131 63:0.662912 64:0.413922 65:0.447025 66:0.678236 67:0.61865 68:0.2 69:0.613406 70:0.62059 71:0.59736 72:0.618759 73:0.445883 74:0.619205 75:0.211709 76:0.476969 77:0.132075 78:0.640212 79:0.485172 80:0.516237 81:0.317697 82:0.871868 83:0.680681 84:0.684751 85:0.965402 86:0.295736 87:0.947092 88:0.736902 89:0.596778 90:0.664556 91:0.759058 92:0.617251 93:1 94:0.863492 95:0.213135 96:0.732239 97:0.501857 98:0.693042 99:0.682419 100:0.720572 101:0.814197 102:0.648617 103:0.965791 104:0.156283 105:0.609136 106:0.427556 107:0.548039 108:0.73849 109:0.508498 110:0.680466 111:0.757017 112:0.815502 113:0.067301 114:0.378475 115:0.531865 116:0.797089 117:0.593075 118:-0.0049536 119:0.245253 120:0.793579 121:0.429172 122:-0.138315 123:0.273579 124:0.589429 125:0.993639 126:0.916542 127:0.588365 128:0.716334 129:0.584722 130:0.398882 131:0.0860695 132:0.664045 133:0.841639 134:0.734043 135:0.650839 136:0.61826 137:0.62081 138:0.415773 139:0.544574 140:0.170909 141:0.868712 142:0.683245 143:0.770518 144:0.619099 145:0.498152 146:0.418341 147:0.640989 148:0.792442 149:0.309185 150:1 151:0.968645 152:0.600611 153:0.816045 154:0.617954 155:0.558589 156:0.609443 157:0.936139 158:0.440111 159:0.896986 160:0.665776 161:0.696097 162:0.616755 163:0.522469 164:0.581081 165:0.342707 166:0.533417 167:0.00404858 168:0.187709 169:0.0122039 170:0.0234576 171:0.218331 172:0.503391 173:0.361681 174:0.654256 175:0.426381 176:0.00657895 177:0.297364 178:0.26576 179:0.338292 180:0.162858 181:0.828988 182:0.837345 183:0.507137 184:0.736372 185:-0.00997414 186:0.509747 187:0.19874 188:0.208545 189:0.364647 190:0.802142 191:0.973578 192:0.956222 193:0.828863 194:0.00259379 195:0.0939229 196:0.216166 197:0.387896 198:0.585393 199:0.259545 200:0.604421 201:0.879586 202:0.525135 203:-0.0268943 204:0.403028 205:0.637965 206:0.989976 207:1 208:0.66484 209:0.457427 210:0.210636 211:0.125215 212:0.00840549 213:0.730657 214:0.918553 215:0.937945 216:0.702033 217:0.359897 218:0.300941 219:0.131272 220:0.35631 221:-0.0110294 222:0.945417 223:0.823898 224:0.787758 225:0.823723 226:0.0881353 227:0.0588873 228:0.364889 229:0.472387 230:-0.0664024 231:0.565414 232:0.631061 233:0.521311 234:0.570344 235:0.040012 236:0.340805 237:0.138826 238:0.532258 239:0.0690537 240:0.482165 241:0.942857 242:0.35434 243:0.544191 244:-0.119559 245:0.232278 246:0.507266 247:0.558241 248:0.179447 249:1 250:1 251:0.871452 252:0.807416 253:0.157745 254:0.129825 255:0.205486 256:1 257:0.315933 258:1 259:0.812894 260:0.73677 261:0.671427 262:0.0660062 263:0.286032 264:0.515997 265:0.641286 266:0.313803 267:0.995588 268:0.810046 269:0.721946 270:0.395121 271:0.0953347 272:0.223401 273:0.453239 274:0.571394 275:0.131865 276:0.501324 277:0.493791 278:0.386109 279:0.205277 280:0.072253 281:0.223928 282:0.348717 283:0.138181 284:0.621534 285:0.116835 286:0.345256 287:0.115284 288:0.152542 289:0.175208 290:0.460356 291:0.583049 292:0.445051 293:0.128807 294:0.537357 295:0.483856 296:0.27812 297:-0.0273361 298:0.437314 299:0.658734 300:0.75341 301:0.973978 302:0.260332 303:0.691357 304:0.230219 305:0.39035 306:0.145194 307:0.85283 308:0.825265 309:0.997216 310:1 311:0.25819 312:0.892539 313:0.337916 314:0.315382 315:0.0681049 316:0.587353 317:0.950159 318:1 319:1 320:0.164768 321:0.753243 322:0.31418 323:-0.0767626 324:0.214831 
1 1:-0.357294 2:-0.393152 3:-0.125571 4:-0.419954 5:-0.390476 6:-0.271739 7:-0.0846645 8:0.0541344 9:-0.196535 10:-0.148228 11:-0.134963 12:-0.126289 13:-0.0582363 14:-0.246512 15:0.259731 16:0.138052 17:0.248408 18:0.0964265 19:-0.236776 20:0.154536 21:0.0713987 22:0.126276 23:-0.17737 24:0.207279 25:0.237303 26:0.182008 27:0.150877 28:-0.129404 29:-0.0223511 30:0.217495 31:0.316986 32:-0.119472 33:-0.155363 34:0.293971 35:0.184185 36:0.104858 37:-0.513499 38:-0.465361 39:-0.155366 40:0.350894 41:-0.46272 42:0.436126 43:0.101929 44:-0.413035 45:-0.46428 46:0.00368655 47:0.286479 48:0.269493 49:-0.115876 50:-0.107454 51:0.399297 52:0.21937 53:0.144629 54:-0.0110429 55:0.0832368 56:0.227284 57:0.180942 58:0.255642 59:-0.157421 60:0.33945 61:0.150022 62:0.16459 63:-0.0649913 64:-0.0340877 65:0.0385269 66:0.184382 67:0.188587 68:-0.263636 69:-0.0194856 70:-0.135917 71:-0.225523 72:-0.210287 73:0.0616261 74:-0.206402 75:-0.134105 76:-0.114413 77:-0.377358 78:-0.202822 79:-0.238434 80:-0.283315 81:-0.556503 82:-0.209019 83:-0.404083 84:-0.377528 85:0.0251116 86:-0.52132 87:-0.135111 88:-0.203886 89:-0.354384 90:-0.250245 91:-0.192426 92:-0.00554939 93:0.00894092 94:0.0253406 95:-0.369269 96:-0.0942542 97:-0.0959302 98:-0.139093 99:-0.0784562 100:-0.00601178 101:0.0270559 102:0.0801195 103:0.293061 104:-0.333753 105:0.0938738 106:0.0552552 107:0.101152 108:-0.00731887 109:-0.0532356 110:0.0883168 111:0.318418 112:0.34172 113:-0.249775 114:0.246021 115:0.364015 116:0.307551 117:0.0538414 118:-0.368668 119:-0.22878 120:0.0909563 121:0.366452 122:0.276576 123:0.418031 124:0.195204 125:-0.21902 126:-0.11343 127:-0.0499754 128:0.256936 129:0.343079 130:0.217709 131:-0.238558 132:0.293718 133:0.316062 134:0.322944 135:-0.0229139 136:0.0210856 137:0.0524165 138:0.0531196 139:0.106704 140:-0.299679 141:0.365215 142:0.0823481 143:-0.0331126 144:-0.101725 145:-0.125531 146:-0.174918 147:-0.121635 148:-0.0327002 149:-0.349288 150:-0.104239 151:0.046395 152:-0.262643 153:-0.257558 154:-0.204233 155:-0.300341 156:-0.1503 157:-0.129203 158:-0.51532 159:-0.0032192 160:-0.323691 161:-0.47026 162:-0.542982 163:-0.528966 164:-0.684489 165:-0.529701 166:-0.540984 167:-0.761134 168:-0.410056 169:-0.30749 170:-0.513175 171:-0.451025 172:-0.526202 173:-0.544925 174:-0.256356 175:-0.423738 176:-0.583333 177:-0.288495 178:-0.16028 179:-0.351887 180:-0.335489 181:-0.307394 182:-0.215389 183:-0.29534 184:-0.148713 185:-0.493905 186:-0.0501866 187:-0.145948 188:0.0122025 189:-0.169735 190:-0.205025 191:-0.238551 192:-0.0312969 193:-0.00653432 194:-0.401657 195:0.00762279 196:0.114707 197:0.141182 198:0.114408 199:-0.180696 200:-0.0183799 201:0.183578 202:0.377477 203:0.417701 204:0.4133 205:0.160866 206:-0.101439 207:0.0137941 208:0.0559767 209:0.144514 210:0.0899089 211:-0.0276646 212:-0.369652 213:-0.0382991 214:-0.0498898 215:-0.123054 216:-0.280509 217:-0.0313713 218:-0.0996687 219:-0.151954 220:-0.151506 221:-0.491912 222:-0.129306 223:-0.182367 224:-0.341953 225:-0.454285 226:-0.218639 227:-0.254817 228:-0.389678 229:-0.319527 230:-0.688801 231:-0.425261 232:-0.480502 233:-0.628415 234:-0.593281 235:-0.558063 236:-0.462429 237:-0.488857 238:-0.436636 239:-0.785166 240:-0.605166 241:-0.73668 242:-0.614744 243:-0.790995 244:-0.714601 245:-0.625943 246:-0.493405 247:-0.331962 248:-0.66166 249:-0.408059 250:-0.311154 251:-0.378029 252:-0.31649 253:-0.707218 254:-0.453216 255:-0.456264 256:-0.189399 257:-0.538761 258:-0.237688 259:-0.0670773 260:-0.232981 261:-0.384378 262:-0.510778 263:-0.323151 264:-0.155565 265:-0.108889 266:-0.363401 267:0.169627 268:0.250031 269:-0.0806366 270:-0.327606 271:-0.463798 272:-0.262404 273:0.0254824 274:0.274226 275:-0.344744 276:0.328151 277:0.0150724 278:-0.131244 279:-0.381978 280:-0.385849 281:-0.278784 282:0.18118 283:0.132067 284:-0.0370699 285:0.150059 286:0.0707684 287:-0.325509 288:-0.465879 289:-0.359707 290:-0.195852 291:0.0558094 292:0.264651 293:-0.332964 294:0.182419 295:0.0637512 296:-0.311591 297:-0.418796 298:-0.303929 299:-0.137915 300:0.112907 301:0.118481 302:-0.37701 303:0.0576223 304:-0.245758 305:-0.445756 306:-0.49518 307:-0.426582 308:-0.187987 309:-0.117436 310:-0.178538 311:-0.531981 312:-0.115535 313:-0.267487 314:-0.522773 315:-0.681472 316:-0.418527 317:-0.257565 318:-0.382701 319:-0.392327 320:-0.658314 321:-0.416433 322:-0.566591 323:-0.690864 324:-0.703381 
1 1:-0.0443975 2:-0.0224321 3:0.0479452 4:-0.292343 5:-0.00952381 6:-0.0597826 7:0.103834 8:0.112433 9:0.22902 10:-0.0527838 11:0.0754516 12:0.305412 13:0.0166389 14:0.144186 15:0.316348 16:0.274702 17:0.426752 18:0.314237 19:0.246012 20:0.211034 21:0.26096 22:0.191018 23:0.155963 24:0.40435 25:0.391236 26:0.313935 27:0.443275 28:-0.147417 29:0.0697112 30:0.369843 31:0.498804 32:0.150495 33:-0.0832773 34:0.340126 35:0.317488 36:0.182186 37:-0.406089 38:-0.0523862 39:0.0590965 40:0.147229 41:-0.472222 42:0.0249954 43:0.0565283 44:-0.435031 45:-0.576751 46:0.21278 47:0.47101 48:0.383259 49:-0.0804976 50:0.125524 51:0.392974 52:0.275574 53:0.155142 54:0.0760736 55:0.478736 56:0.409505 57:0.357341 58:0.411892 59:0.118441 60:0.269987 61:0.384074 62:0.176393 63:0.0259965 64:0.171584 65:0.328612 66:0.441793 67:0.280445 68:0.136364 69:0.0631333 70:0.0248699 71:0.119912 72:0.214826 73:0.03884 74:0.152318 75:0.12049 76:0.20951 77:0.0377358 78:0.114638 79:0.11032 80:-0.117581 81:-0.1258 82:0.15247 83:-0.00446127 84:-0.180738 85:0.197545 86:0.0894085 87:0.282903 88:0.275602 89:0.00093505 90:0.0448521 91:-0.0509724 92:0.01316 93:0.253019 94:0.211257 95:0.039653 96:0.232192 97:0.0425549 98:0.249481 99:0.387452 100:0.0952266 101:0.210047 102:0.295546 103:0.621761 104:0.0761485 105:0.263228 106:0.297781 107:0.255329 108:0.242239 109:0.0709496 110:0.223995 111:0.496289 112:0.455552 113:0.0258388 114:0.291681 115:0.385926 116:0.41844 117:0.155261 118:-0.0915371 119:0.187213 120:0.29814 121:0.273878 122:-0.042893 123:0.206984 124:0.245027 125:-0.0650525 126:-0.0537084 127:0.321311 128:0.454845 129:0.420006 130:0.256985 131:0.0250138 132:0.424035 133:0.430248 134:0.317521 135:0.190006 136:0.268619 137:0.277871 138:0.264265 139:0.272241 140:0.0656684 141:0.356982 142:0.305205 143:0.179691 144:0.10496 145:0.20116 146:0.129895 147:0.118667 148:0.29861 149:0.0569211 150:0.334806 151:0.206818 152:0.0414057 153:0.206709 154:0.145722 155:0.0577361 156:0.186527 157:0.125819 158:-0.0640669 159:0.218613 160:0.000157208 161:-0.0693928 162:0.175992 163:-0.220357 164:-0.524677 165:-0.239367 166:-0.242119 167:-0.526316 168:0.0703911 169:-0.157693 170:-0.119216 171:0.0637405 172:-0.446363 173:-0.193116 174:-0.151058 175:-0.0684642 176:-0.0109649 177:0.0662725 178:0.0937371 179:0.135317 180:0.188012 181:0.0503209 182:0.132322 183:-0.0352645 184:0.099215 185:-0.111193 186:0.22107 187:0.188195 188:0.242805 189:0.307457 190:-0.00135595 191:0.166955 192:0.181522 193:0.218682 194:-0.0590245 195:0.182736 196:0.275308 197:0.338929 198:0.383031 199:-0.0539765 200:0.33076 201:0.339004 202:0.297047 203:0.0669474 204:0.234571 205:0.171359 206:-0.0284752 207:-0.054077 208:0.418851 209:0.371326 210:0.255252 211:0.136831 212:-0.0781773 213:0.273327 214:0.156062 215:0.10126 216:-0.0207221 217:0.223997 218:0.248277 219:0.0489333 220:0.171941 221:-0.0889706 222:0.254099 223:0.0995748 224:-0.061348 225:-0.17828 226:0.152028 227:-0.0218989 228:0.170424 229:0.0739645 230:-0.224975 231:0.0641424 232:-0.0508647 233:-0.207104 234:-0.276046 235:-0.0078219 236:0.0347235 237:-0.157636 238:-0.15553 239:-0.242967 240:-0.0713407 241:-0.0849421 242:-0.403686 243:0.045025 244:-0.197796 245:-0.0145802 246:-0.0994858 247:-0.0737979 248:-0.18419 249:0.0505216 250:0.0874317 251:0.121678 252:0.128737 253:-0.181265 254:0.2 255:0.091852 256:0.23009 257:-0.048695 258:0.0514671 259:0.200344 260:0.238077 261:0.161612 262:-0.183826 263:0.117255 264:0.116123 265:0.312186 266:-0.00749421 267:0.248278 268:0.386411 269:0.340833 270:0.139731 271:-0.132904 272:0.0162151 273:0.331207 274:0.43892 275:-0.0412435 276:0.289807 277:0.22552 278:0.2205 279:0.0631258 280:0.0792936 281:0.10251 282:0.392953 283:0.215044 284:0.0901492 285:0.209702 286:0.296679 287:0.104029 288:0.0187333 289:0.0824792 290:0.19465 291:0.321017 292:0.235931 293:-0.035033 294:0.409307 295:0.424161 296:0.0679612 297:-0.0796855 298:0.164323 299:0.332463 300:0.358475 301:0.256843 302:-0.0107641 303:0.234463 304:0.108362 305:0.0967742 306:-0.12007 307:0.143974 308:0.255044 309:0.306831 310:0.0293743 311:-0.0312012 312:0.30206 313:0.0711529 314:-0.0386709 315:-0.208968 316:-0.00635949 317:0.0709315 318:0.0736751 319:-0.170727 320:-0.255885 321:0.0246757 322:-0.124974 323:-0.255736 324:-0.293348 
1 1:-0.784355 2:-0.820543 3:-0.824201 4:-0.837587 5:-0.92381 6:-0.86413 7:-0.720447 8:-0.727543 9:-0.83216 10:-0.689082 11:-0.596174 12:-0.707474 13:-0.753744 14:-0.860465 15:-0.562633 16:-0.559916 17:-0.680975 18:-0.712989 19:-0.580185 20:-0.658358 21:-0.609186 22:-0.542724 23:-0.58104 24:0.0985353 25:-0.0597753 26:-0.372826 27:-0.477694 28:-0.500395 29:-0.350248 30:-0.21382 31:0.232057 32:-0.0963696 33:0.360602 34:0.342795 35:-0.188723 36:-0.321053 37:-0.471393 38:-0.237727 39:0.0920829 40:0.595139 41:-0.506558 42:0.629386 43:0.46396 44:-0.289407 45:-0.655966 46:-0.369128 47:-0.228158 48:0.364938 49:0.362055 50:-0.135205 51:0.147775 52:-0.215675 53:-0.46974 54:-0.382004 55:-0.568426 56:-0.370106 57:-0.000554017 58:0.106771 59:-0.610195 60:-0.389253 61:-0.486142 62:-0.548197 63:-0.560659 64:-0.766829 65:-0.660057 66:-0.590745 67:-0.571329 68:-0.818182 69:-0.694466 70:-0.62059 71:-0.652365 72:-0.700454 73:-0.821854 74:-0.820088 75:-0.787611 76:-0.699851 77:-0.849057 78:-0.686067 79:-0.698695 80:-0.773796 81:-0.658849 82:-0.827487 83:-0.899959 84:-0.809952 85:-0.739397 86:-0.939477 87:-0.877569 88:-0.838586 89:-0.893404 90:-0.888229 91:-0.786489 92:-0.783415 93:-0.718868 94:-0.738444 95:-0.903346 96:-0.724314 97:-0.758721 98:-0.791257 99:-0.771875 100:-0.705182 101:-0.696664 102:-0.730425 103:-0.45415 104:-0.718062 105:-0.331538 106:-0.354261 107:-0.52412 108:-0.621164 109:-0.600748 110:-0.467909 111:-0.364702 112:-0.00477112 113:-0.422133 114:0.40941 115:0.0571951 116:-0.321794 117:-0.466046 118:-0.421203 119:-0.192683 120:0.085457 121:0.393995 122:0.52917 123:0.407648 124:0.195051 125:-0.302848 126:-0.516847 127:-0.544781 128:-0.377311 129:0.0898487 130:0.427013 131:-0.430849 132:-0.0763132 133:-0.337038 134:-0.412883 135:-0.544137 136:-0.623251 137:-0.505614 138:-0.338449 139:-0.353886 140:-0.72492 141:-0.507557 142:-0.667754 143:-0.621486 144:-0.643422 145:-0.791967 146:-0.804107 147:-0.74876 148:-0.732328 149:-0.902975 150:-0.737402 151:-0.795096 152:-0.756761 153:-0.791689 154:-0.869424 155:-0.872725 156:-0.853668 157:-0.896384 158:-0.883008 159:-0.803336 160:-0.724257 161:-0.772305 162:-0.772429 163:-0.886302 164:-0.949471 165:-0.908612 166:-0.960908 167:-0.995951 168:-0.945251 169:-0.973199 170:-0.970116 171:-0.976117 172:-0.891492 173:-0.959504 174:-0.927177 175:-0.931271 176:-0.984649 177:-0.921656 178:-0.936341 179:-0.943698 180:-0.952135 181:-0.803312 182:-0.83331 183:-0.828086 184:-0.830571 185:-0.915035 186:-0.683949 187:-0.637988 188:-0.799948 189:-0.882975 190:-0.649168 191:-0.616571 192:-0.586544 193:-0.490945 194:-0.66711 195:0.111512 196:-0.219796 197:-0.578377 198:-0.634312 199:-0.383294 200:-0.209214 201:-0.0912316 202:0.352297 203:0.725794 204:0.360082 205:-0.0594513 206:-0.333808 207:-0.345039 208:-0.635864 209:-0.585886 210:-0.246305 211:0.17836 212:-0.678064 213:-0.495094 214:-0.528325 215:-0.532499 216:-0.582238 217:-0.861061 218:-0.752749 219:-0.606577 220:-0.655509 221:-0.896324 222:-0.770441 223:-0.839114 224:-0.787758 225:-0.835742 226:-0.924477 227:-0.926488 228:-0.957688 229:-0.920611 230:-0.962339 231:-0.906188 232:-0.870125 233:-0.888525 234:-0.886287 235:-0.988869 236:-0.945618 237:-0.961971 238:-0.900922 239:-0.984655 240:-1 241:-0.928185 242:-0.939358 243:-0.958866 244:-0.979063 245:-0.925591 246:-0.898055 247:-0.871432 248:-0.950988 249:-0.804664 250:-0.812815 251:-0.810001 252:-0.799321 253:-0.92498 254:-0.953216 255:-0.89766 256:-0.774595 257:-0.894819 258:-0.692222 259:-0.58646 260:-0.702012 261:-0.815313 262:-0.900924 263:-0.927695 264:-0.840973 265:-0.586706 266:-0.744652 267:-0.257421 268:-0.253066 269:-0.563145 270:-0.804831 271:-0.942852 272:-0.79249 273:-0.597629 274:-0.140501 275:-0.52404 276:0.389835 277:-0.207382 278:-0.668782 279:-0.819174 280:-0.878232 281:-0.705617 282:-0.337397 283:0.131601 284:-0.365056 285:0.1238 286:-0.325372 287:-0.751076 288:-0.865745 289:-0.830331 290:-0.631573 291:-0.0784841 292:0.321137 293:-0.522877 294:-0.217396 295:-0.631279 296:-0.81784 297:-0.841165 298:-0.726924 299:-0.51904 300:-0.21654 301:-0.247322 302:-0.773289 303:-0.648195 304:-0.855244 305:-0.907037 306:-0.902717 307:-0.73685 308:-0.653926 309:-0.582787 310:-0.638679 311:-0.911856 312:-0.711581 313:-0.858659 314:-0.96448 315:-0.96066 316:-0.791097 317:-0.776255 318:-0.866437 319:-0.877905 320:-0.962035 321:-0.880438 322:-0.972091 323:-0.938256 324:-0.97928 
1 1:-0.46723 2:-0.449823 3:-0.449772 4:-0.638051 5:-0.695238 6:-0.494565 7:-0.397764 8:-0.359905 9:-0.515972 10:-0.564714 11:-0.434644 12:-0.306701 13:-0.409318 14:-0.534884 15:-0.259731 16:-0.338472 17:-0.472168 18:-0.486103 19:-0.383711 20:-0.29013 21:-0.345303 22:-0.326334 23:-0.538226 24:-0.181092 25:-0.196404 26:-0.337816 27:-0.294236 28:-0.336704 29:-0.285007 30:-0.192318 31:-0.167464 32:-0.452145 33:-0.296642 34:-0.177705 35:-0.197799 36:-0.192308 37:-0.65249 38:-0.612085 39:-0.37541 40:-0.0103644 41:-0.0244523 42:0.226369 43:0.157589 44:-0.45526 45:-0.50485 46:-0.20673 47:-0.189315 48:-0.134825 49:-0.233298 50:-0.447564 51:-0.116628 52:-0.166667 53:-0.216606 54:-0.258487 55:-0.308291 56:-0.266929 57:-0.240776 58:-0.199219 59:-0.58021 60:-0.22346 61:-0.295205 62:-0.443934 63:-0.42201 64:-0.472357 65:-0.401133 66:-0.300795 67:-0.380654 68:-0.663636 69:-0.512081 70:-0.41122 71:-0.394939 72:-0.464448 73:-0.578457 74:-0.494481 75:-0.531654 76:-0.485884 77:-0.698113 78:-0.488536 79:-0.568209 80:-0.630459 81:-0.484009 82:-0.608447 83:-0.687982 84:-0.547352 85:-0.419643 86:-0.713893 87:-0.480105 88:-0.469877 89:-0.551176 90:-0.697199 91:-0.485773 92:-0.479309 93:-0.47479 94:-0.471285 95:-0.70632 96:-0.43089 97:-0.543928 98:-0.497303 99:-0.589744 100:-0.386077 101:-0.306342 102:-0.461758 103:-0.194096 104:-0.629956 105:-0.352171 106:-0.375198 107:-0.392731 108:-0.466685 109:-0.382816 110:-0.328736 111:-0.1949 112:-0.162128 113:-0.572859 114:-0.162823 115:-0.192854 116:-0.19529 117:-0.281339 118:-0.513712 119:-0.397528 120:-0.244143 121:-0.0876992 122:0.597957 123:0.0352974 124:0.0206643 125:-0.365095 126:-0.273983 127:-0.301486 128:-0.269664 129:-0.199352 130:-0.17592 131:-0.576821 132:-0.214854 133:-0.246189 134:-0.253328 135:-0.31134 136:-0.356716 137:-0.390615 138:-0.39779 139:-0.400298 140:-0.647059 141:-0.222874 142:-0.424107 143:-0.325975 144:-0.514019 145:-0.554097 146:-0.555416 147:-0.537287 148:-0.479146 149:-0.706339 150:-0.366837 151:-0.490839 152:-0.55508 153:-0.316953 154:-0.616709 155:-0.647611 156:-0.503409 157:-0.556354 158:-0.699164 159:-0.489025 160:-0.62333 161:-0.66233 162:-0.602376 163:-0.655658 164:-0.695065 165:-0.661863 166:-0.843632 167:-0.850202 168:-0.667039 169:-0.754965 170:-0.883033 171:-0.778925 172:-0.685882 173:-0.627942 174:-0.586682 175:-0.610891 176:-0.850877 177:-0.728505 178:-0.766584 179:-0.726488 180:-0.764841 181:-0.452572 182:-0.494087 183:-0.575987 184:-0.468818 185:-0.755449 186:-0.475404 187:-0.596426 188:-0.648068 189:-0.66427 190:-0.376705 191:-0.20774 192:-0.273988 193:-0.22254 194:-0.633454 195:-0.385405 196:-0.447255 197:-0.419503 198:-0.396245 199:-0.393997 200:-0.263228 201:-0.245674 202:-0.129719 203:0.670101 204:-0.012221 205:-0.137148 206:-0.330601 207:-0.207907 208:-0.324132 209:-0.402124 210:-0.441578 211:-0.395244 212:-0.647096 213:-0.302052 214:-0.261719 215:-0.342425 216:-0.417623 217:-0.66423 218:-0.563792 219:-0.642396 220:-0.573465 221:-0.765441 222:-0.539342 223:-0.454688 224:-0.463411 225:-0.560166 226:-0.735216 227:-0.672367 228:-0.706165 229:-0.727318 230:-0.861249 231:-0.67618 232:-0.709054 233:-0.659563 234:-0.629139 235:-0.743682 236:-0.829873 237:-0.787773 238:-0.776498 239:-0.907928 240:-0.666667 241:-0.673359 242:-0.812723 243:-0.715397 244:-0.823691 245:-0.70538 246:-0.472837 247:-0.572127 248:-0.693281 249:-0.553487 250:-0.429122 251:-0.481975 252:-0.458415 253:-0.774534 254:-0.583041 255:-0.581192 256:-0.394459 257:-0.702376 258:-0.361039 259:-0.336394 260:-0.345289 261:-0.466068 262:-0.712411 263:-0.608893 264:-0.579985 265:-0.493434 266:-0.62747 267:-0.198689 268:-0.173325 269:-0.320554 270:-0.468633 271:-0.597672 272:-0.570328 273:-0.424568 274:-0.276948 275:-0.605928 276:-0.122124 277:-0.260701 278:-0.430609 279:-0.53109 280:-0.655933 281:-0.508136 282:-0.307442 283:-0.20816 284:-0.369959 285:-0.198016 286:-0.309432 287:-0.551383 288:-0.607605 289:-0.552493 290:-0.365334 291:-0.183456 292:-0.169457 293:-0.591181 294:-0.305519 295:-0.414795 296:-0.561659 297:-0.676791 298:-0.48598 299:-0.420484 300:-0.158206 301:-0.18598 302:-0.638538 303:-0.344409 304:-0.609282 305:-0.636144 306:-0.66988 307:-0.410654 308:-0.344143 309:-0.297302 310:-0.407844 311:-0.695788 312:-0.420379 313:-0.599614 314:-0.708393 315:-0.804146 316:-0.431845 317:-0.39576 318:-0.504308 319:-0.503034 320:-0.691724 321:-0.526329 322:-0.635132 323:-0.760534 324:-0.838604 
1 1:-0.0570825 2:-0.336482 3:-0.166667 4:-0.389791 5:-0.352381 6:-0.0461957 7:-0.0111821 8:-0.0184414 9:-0.240931 10:-0.165582 11:-0.128587 12:-0.210052 13:-0.148087 14:-0.293023 15:0.0304317 16:0.128241 17:0.0761562 18:-0.0487805 19:-0.111671 20:0.138584 21:0.148225 22:0.074949 23:-0.16208 24:0.411895 25:0.277303 26:0.116856 27:0.172598 28:-0.111392 29:0.182071 30:0.377929 31:0.644258 32:0.0818482 33:0.141255 34:0.494905 35:0.346531 36:0.158907 37:-0.489782 38:-0.351351 39:0.0869719 40:0.547671 41:-0.643177 42:0.463994 43:0.0181965 44:-0.453639 45:-0.560739 46:0.190661 47:0.434104 48:0.579501 49:0.227704 50:0.0371087 51:0.460187 52:0.302412 53:0.149211 54:0.00940695 55:0.108059 56:0.139621 57:0.185817 58:0.279514 59:-0.229385 60:0.199214 61:0.0945886 62:0.012459 63:-0.0485269 64:-0.109138 65:0.0311615 66:0.124367 67:0.0702853 68:-0.254545 69:-0.120811 70:-0.0549451 71:-0.212321 72:0.0801815 73:-0.210772 74:-0.144592 75:-0.173587 76:-0.0965825 77:-0.339623 78:-0.167549 79:-0.131673 80:-0.0145577 81:-0.159915 82:-0.08733 83:-0.300798 84:-0.252327 85:-0.00167411 86:-0.485557 87:-0.177088 88:-0.342565 89:-0.355247 90:-0.362669 91:-0.16479 92:-0.263358 93:-0.126187 94:-0.107348 95:-0.418835 96:-0.235966 97:-0.214551 98:-0.192558 99:-0.14139 100:-0.0958278 101:0.0108611 102:-0.0189586 103:0.131857 104:-0.36438 105:0.08383 106:0.107583 107:-0.0190539 108:-0.0138096 109:0.0501169 110:0.118136 111:0.445498 112:0.529009 113:-0.114071 114:0.517354 115:0.46685 116:0.320853 117:0.121651 118:-0.199582 119:-0.00135508 120:0.351216 121:0.581414 122:0.196889 123:0.568601 124:0.266608 125:-0.175558 126:-0.131598 127:0.250987 128:0.337116 129:0.534759 130:0.579648 131:-0.161562 132:0.298653 133:0.334259 134:0.227485 135:0.0878598 136:-0.0525882 137:0.0350588 138:0.0417432 139:-0.0394557 140:-0.28984 141:0.102188 142:0.00380486 143:0.0655874 144:-0.0410975 145:-0.277826 146:-0.276564 147:-0.235002 148:-0.202271 149:-0.402329 150:-0.158084 151:-0.179473 152:-0.173415 153:-0.102019 154:-0.340065 155:-0.289391 156:-0.245141 157:-0.217594 158:-0.395543 159:-0.0301434 160:-0.255149 161:-0.192069 162:-0.29603 163:-0.341635 164:-0.340188 165:-0.283656 166:-0.25599 167:-0.680162 168:-0.506145 169:-0.430007 170:-0.466581 171:-0.57076 172:-0.164612 173:-0.256391 174:-0.273085 175:-0.287867 176:-0.530702 177:-0.40675 178:-0.384219 179:-0.40611 180:-0.489435 181:-0.0221095 182:-0.0272715 183:-0.0556255 184:-0.19734 185:-0.43997 186:-0.181418 187:-0.294464 188:-0.338802 189:-0.340727 190:0.127542 191:0.192268 192:0.340742 193:0.267907 194:-0.281584 195:0.125153 196:0.0859734 197:-0.0375574 198:-0.0165997 199:-0.0778038 200:0.200558 201:0.330688 202:0.605842 203:0.326065 204:0.559403 205:0.147789 206:-0.0655148 207:0.0718538 208:-0.0424134 209:0.0297495 210:0.0550349 211:0.177478 212:-0.289894 213:0.229854 214:0.242506 215:0.250309 216:0.0812007 217:-0.404463 218:-0.3417 219:-0.381223 220:-0.187953 221:-0.515441 222:-0.0254209 223:-0.0910718 224:-0.0101788 225:0.00858492 226:-0.44989 227:-0.482628 228:-0.351854 229:-0.445759 230:-0.591675 231:-0.208251 232:-0.217701 233:-0.171038 234:-0.34001 235:-0.562575 236:-0.42054 237:-0.490902 238:-0.375576 239:-0.621483 240:-0.446494 241:-0.187645 242:-0.315696 243:-0.200667 244:-0.595592 245:-0.742584 246:-0.43349 247:-0.404474 248:-0.604743 249:-0.307834 250:-0.122683 251:-0.0445711 252:0.0823867 253:-0.624493 254:-0.494737 255:-0.606777 256:-0.293267 257:-0.537203 258:-0.00670568 259:0.0533361 260:0.086698 261:-0.0488236 262:-0.563529 263:-0.389464 264:-0.363894 265:-0.118617 266:-0.358768 267:0.317433 268:0.351666 269:0.195954 270:-0.171503 271:-0.37349 272:-0.292033 273:-0.104153 274:0.204561 275:-0.250331 276:0.547216 277:0.314653 278:0.0123919 279:-0.172446 280:-0.294668 281:-0.104287 282:0.121764 283:0.259846 284:0.210886 285:0.274775 286:0.0680836 287:-0.230417 288:-0.336753 289:-0.0947791 290:0.0467543 291:0.388266 292:0.510222 293:-0.265566 294:0.180134 295:-0.0973912 296:-0.343453 297:-0.434161 298:-0.0288076 299:0.0610453 300:0.323116 301:0.305492 302:-0.396412 303:-0.110387 304:-0.36925 305:-0.421586 306:-0.503944 307:0.0185512 308:0.0296997 309:0.0775275 310:-0.154852 311:-0.50858 312:-0.157572 313:-0.538109 314:-0.459754 315:-0.48308 316:-0.0697144 317:-0.100707 318:-0.232443 319:-0.380379 320:-0.638573 321:-0.24752 322:-0.434845 323:-0.617438 324:-0.663032 
1 1:-0.150106 2:-0.0602125 3:-0.0844749 4:-0.271462 5:-0.2 6:0.0706522 7:0.357827 8:0.358715 9:0.224689 10:-0.0281996 11:0.0584485 12:0.324742 13:0.25624 14:-0.0232558 15:0.433829 16:0.519271 17:0.441706 18:0.25468 19:0.077246 20:0.259555 21:0.280167 22:0.164771 23:-0.0214067 24:0.465601 25:0.366517 26:0.328542 27:0.369424 28:-0.13446 29:0.0283919 30:0.268952 31:0.377751 32:-0.0468647 33:-0.259603 34:0.2295 35:0.321686 36:0.321457 37:-0.648332 38:-0.27228 39:0.425007 40:-0.0757184 41:-0.44782 42:0.331726 43:-0.0707058 44:-0.528612 45:-0.595997 46:0.158333 47:0.408361 48:0.281644 49:-0.1805 50:-0.0287189 51:0.352459 52:0.438351 53:0.293166 54:0.206953 55:0.375476 56:0.421079 57:0.363102 58:0.46441 59:-0.0134933 60:0.353211 61:0.279366 62:0.339016 63:0.29896 64:0.211114 65:0.323513 66:0.352856 67:0.487822 68:-0.00909091 69:0.123928 70:0.171776 71:0.313531 72:0.270802 73:0.219057 74:0.0309051 75:0.311096 76:0.182764 77:-0.188679 78:0.188713 79:0.088968 80:-0.0055991 81:0.151386 82:-0.0608447 83:-0.236447 84:0.130337 85:0.21596 86:-0.0618982 87:0.330127 88:0.367779 89:0.257858 90:0.150356 91:-0.0397134 92:0.0994134 93:0.269979 94:0.292754 95:-0.0768278 96:0.412775 97:0.281977 98:0.270992 99:0.352114 100:0.096429 101:0.286559 102:0.186729 103:0.55689 104:-0.0618838 105:0.266072 106:0.225083 107:0.248574 108:0.322053 109:0.156027 110:0.0985673 111:0.30965 112:0.409551 113:-0.0945418 114:0.190387 115:0.290604 116:0.313996 117:0.243008 118:-0.298064 119:0.119459 120:0.597404 121:0.138841 122:0.0750492 123:0.366595 124:0.225552 125:-0.157606 126:-0.075599 127:0.283088 128:0.405794 129:0.316884 130:0.201771 131:-0.0836633 132:0.291103 133:0.341448 134:0.397885 135:0.23611 136:0.247739 137:0.238122 138:0.206109 139:0.316162 140:-0.019893 141:0.467291 142:0.319473 143:0.349914 144:0.128684 145:0.111856 146:0.0937137 147:0.272735 148:0.375955 149:0.0336352 150:0.321552 151:0.181661 152:0.0438503 153:0.206068 154:0.159416 155:0.153441 156:0.423222 157:0.373652 158:0.0139276 159:0.35616 160:0.0319132 161:0.187423 162:0.0672085 163:-0.682729 164:-0.412456 165:-0.448858 166:-0.300126 167:-0.489879 168:0.00670391 169:-0.180665 170:0.030527 171:-0.0437308 172:-0.562269 173:-0.295368 174:-0.0877481 175:-0.171028 176:-0.175439 177:0.0948509 178:0.207252 179:0.425464 180:0.275406 181:-0.259371 182:-0.0647002 183:-0.122166 184:0.327955 185:-0.182859 186:0.335877 187:0.178541 188:0.327382 189:0.320674 190:-0.053989 191:0.0323625 192:0.167841 193:0.14724 194:-0.254381 195:0.0460957 196:0.180868 197:0.250535 198:0.291114 199:-0.183135 200:0.218297 201:0.501446 202:0.186967 203:0.240394 204:0.381944 205:0.175616 206:-0.0344751 207:0.111162 208:0.285768 209:0.375222 210:0.19184 211:0.101752 212:-0.249447 213:0.179304 214:0.173439 215:0.194006 216:-0.0524831 217:0.291009 218:0.371434 219:0.237228 220:0.302936 221:-0.169853 222:0.234511 223:0.112329 224:-0.0258597 225:-0.158106 226:0.180878 227:0.200495 228:0.136446 229:0.333826 230:-0.373637 231:-0.0466233 232:-0.148186 233:-0.0245902 234:-0.160394 235:0.102286 236:0.213301 237:-0.251278 238:0.0195853 239:-0.508951 240:-0.100861 241:-0.0610039 242:-0.368609 243:-0.231795 244:-0.53719 245:-0.430367 246:-0.150905 247:-0.106711 248:-0.410277 249:-0.0251585 250:-0.091289 251:0.0588423 252:-0.0344693 253:-0.529603 254:-0.41345 255:-0.162614 256:0.0678624 257:-0.184262 258:0.0811088 259:0.226701 260:-0.0581471 261:-0.0681355 262:-0.347168 263:-0.298018 264:0.0319941 265:0.274683 266:-0.053277 267:0.296491 268:0.287099 269:0.215174 270:-0.112417 271:-0.254784 272:-0.126434 273:0.333655 274:0.417912 275:-0.104968 276:0.315155 277:0.135206 278:0.0138824 279:-0.245671 280:-0.2747 281:-0.0834483 282:0.290288 283:0.149096 284:-0.0999556 285:0.133793 286:0.143676 287:-0.113117 288:-0.306869 289:-0.312339 290:0.00594165 291:0.183105 292:0.286159 293:-0.082549 294:0.446787 295:0.338412 296:-0.0878078 297:-0.313918 298:-0.0582971 299:0.0982467 300:0.364265 301:0.243959 302:-0.127973 303:0.286676 304:-0.0233081 305:-0.188621 306:-0.47882 307:-0.139492 308:0.124459 309:0.359238 310:0.109347 311:-0.166147 312:0.236915 313:-0.0947902 314:-0.514179 315:-0.524958 316:-0.0889129 317:-0.0557204 318:0.023589 319:-0.0822365 320:-0.392559 321:-0.13101 322:-0.210753 323:-0.555695 324:-0.629226 
